%YAML:1.0
---
opencv_ml_svm:
   format: 3
   svmType: C_SVC
   kernel:
      type: RBF
      gamma: 1.5000000000000001e-04
   C: 6.2500000000000000e+01
   term_criteria: { epsilon:1.1920928955078125e-07, iterations:1000 }
   var_count: 3249
   class_count: 6
   class_labels: !!opencv-matrix
      rows: 6
      cols: 1
      dt: i
      data: [ 0, 1, 2, 3, 4, 5 ]
   sv_total: 24
   support_vectors:
      - [ 0., 0., 0., 0., 0., 0., 0., 0., 0., 0., 0., 0., 0., 0., 0., 0.,
          0., 0., 0., 0., 0., 0., 0., 0., 0., 0., 0., 0., 0., 0., 0., 0.,
          0., 0., 0., 0., 0., 0., 0., 0., 0., 0., 0., 0., 0., 0., 0., 0.,
          0., 0., 0., 0., 0., 0., 0., 0., 0., 0., 0., 0., 0., 0., 0., 0.,
          0., 0., 0., 0., 0., 0., 0., 0., 0., 0., 0., 0., 0., 0., 0., 0.,
          0., 0., 0., 0., 0., 0., 0., 0., 0., 0., 0., 0., 0., 0., 0., 0.,
          0., 0., 0., 0., 0., 0., 0., 0., 0., 0., 0., 0., 0., 0., 0., 0.,
          0., 0., 0., 0., 0., 0., 0., 0., 0., 0., 0., 0., 0., 0., 0., 0.,
          0., 0., 0., 0., 0., 0., 0., 0., 0., 0., 0., 0., 0., 0., 0., 0.,
          0., 0., 0., 0., 0., 0., 0., 0., 0., 0., 0., 0., 0., 0., 0., 0.,
          0., 0., 0., 0., 0., 0., 0., 0., 0., 0., 0., 0., 0., 0., 0., 0.,
          0., 0., 0., 0., 0., 0., 0., 0., 0., 0., 0., 0., 0., 0., 0., 0.,
          0., 0., 0., 0., 0., 0., 0., 0., 0., 0., 0., 0., 0., 0., 0., 0.,
          0., 0., 0., 0., 0., 0., 0., 0., 0., 0., 0., 0., 0., 0., 0., 0.,
          0., 0., 0., 0., 0., 0., 0., 0., 0., 0., 0., 0., 0., 0., 0., 0.,
          0., 0., 0., 0., 0., 0., 0., 0., 0., 0., 0., 0., 0., 0., 0., 0.,
          0., 0., 0., 0., 0., 0., 0., 0., 0., 0., 0., 0., 0., 0., 0., 0.,
          0., 0., 0., 0., 0., 0., 0., 0., 0., 0., 0., 0., 0., 0., 0., 0.,
          0., 0., 0., 0., 0., 0., 0., 0., 0., 0., 0., 0., 0., 0., 0., 0.,
          0., 0., 0., 0., 0., 0., 0., 0., 0., 0., 0., 0., 0., 0., 0., 0.,
          0., 0., 0., 0., 0., 0., 0., 0., 0., 0., 0., 0., 0., 0., 0., 0.,
          0., 0., 0., 0., 0., 0., 0., 0., 0., 0., 0., 0., 0., 0., 0., 0.,
          0., 0., 0., 0., 0., 0., 0., 0., 0., 0., 0., 0., 0., 0., 0., 0.,
          0., 0., 0., 0., 0., 0., 0., 0., 0., 0., 7.04003215e-01, 0., 0.,
          0., 0., 0., 0., 0., 7.04003215e-01, 5.75688422e-01,
          5.75688422e-01, 0., 0., 0., 0., 0., 0., 5.75688422e-01,
          5.75688422e-01, 5.75688422e-01, 0., 0., 0., 0., 0., 0.,
          5.75688422e-01, 5.68147480e-01, 5.68147480e-01, 0., 0.,
          1.61095902e-01, 0., 0., 0., 5.68147480e-01, 6.30977869e-01,
          9.57856402e-02, 0., 0., 3.96510720e-01, 0., 0., 1.76176995e-01,
          6.30977869e-01, 5.64588070e-01, 0., 0., 0., 1.95148662e-01, 0.,
          0., 5.64588070e-01, 5.64588070e-01, 5.75688422e-01, 0., 0., 0.,
          0., 0., 0., 5.75688422e-01, 5.75688422e-01, 5.75688422e-01, 0.,
          0., 0., 0., 0., 0., 5.75688422e-01, 5.75688422e-01,
          5.79460204e-01, 0., 0., 0., 0., 0., 0., 4.21735287e-01,
          6.92425549e-01, 0., 0., 0., 0., 0., 0., 0., 0., 0., 0., 0., 0.,
          0., 0., 0., 0., 0., 0., 0., 0., 0., 0., 0., 0., 0., 0., 0., 0.,
          0., 0., 0., 0., 0., 0., 0., 0., 0., 0., 0., 0., 0., 0., 0., 0.,
          0., 0., 0., 0., 0., 0., 0., 0., 0., 0., 0., 0., 0., 0., 0., 0.,
          0., 0., 0., 0., 0., 0., 0., 0., 0., 0., 0., 0., 0., 0., 0., 0.,
          0., 0., 0., 0., 0., 5.85647464e-01, 5.85647464e-01, 0., 0., 0.,
          0., 0., 0., 5.55145204e-01, 5.72061896e-01, 5.72061896e-01, 0.,
          0., 9.24746096e-02, 6.23907074e-02, 8.89349543e-03, 0.,
          5.72061896e-01, 4.45249408e-01, 4.45249408e-01, 0., 0.,
          4.45249408e-01, 4.45249408e-01, 6.57060146e-02, 0.,
          4.45249408e-01, 4.42230135e-01, 4.42230135e-01, 0., 0.,
          4.42230135e-01, 4.42230135e-01, 1.33210674e-01, 0.,
          4.42230135e-01, 4.82728243e-01, 2.32016563e-01, 0., 0.,
          4.82728243e-01, 4.82728243e-01, 9.61281136e-02, 0.,
          4.82728243e-01, 5.72131693e-01, 1.24230320e-02, 7.81548675e-03,
          5.48280068e-02, 5.72131693e-01, 9.14844126e-02, 1.30406637e-02,
          2.28494797e-02, 5.72131693e-01, 4.79063362e-01, 0.,
          9.54084322e-02, 4.79063362e-01, 4.79063362e-01, 0., 0.,
          2.60970145e-01, 4.79063362e-01, 4.42283839e-01, 0.,
          1.32314131e-01, 4.42283839e-01, 4.42283839e-01, 0., 0.,
          4.42283839e-01, 4.42283839e-01, 4.45017666e-01, 0.,
          7.31508434e-02, 4.45017666e-01, 4.45017666e-01, 0., 0.,
          4.45017666e-01, 4.45017666e-01, 5.72761357e-01, 0.,
          1.25452774e-02, 8.80089253e-02, 4.55546193e-02, 0.,
          1.16531560e-02, 5.72761357e-01, 5.72761357e-01, 5.22455812e-01,
          0., 0., 0., 0., 0., 4.19406831e-01, 5.22455812e-01,
          5.22455812e-01, 0., 0., 0., 0., 0., 0., 0., 0., 0., 0., 0., 0.,
          0., 0., 0., 0., 0., 0., 0., 0., 0., 0., 0., 0., 0., 0., 0., 0.,
          0., 0., 0., 0., 0., 0., 0., 0., 0., 0., 0., 0., 0., 0., 0., 0.,
          0., 0., 0., 0., 0., 0., 0., 0., 0., 0., 0., 0., 0., 0., 0., 0.,
          0., 0., 0., 5.75688422e-01, 5.75688422e-01, 5.75688422e-01, 0.,
          0., 0., 0., 0., 0., 6.53458178e-01, 6.53458178e-01,
          8.38282034e-02, 0., 1.17523581e-01, 2.89348692e-01,
          8.91680196e-02, 1.59742516e-02, 1.63380995e-01, 4.62603807e-01,
          4.62603807e-01, 0., 0., 4.62603807e-01, 4.62603807e-01,
          2.53741860e-01, 2.20093830e-03, 2.73825467e-01, 4.39444870e-01,
          4.39444870e-01, 0., 0., 4.39444870e-01, 4.39444870e-01,
          1.73353061e-01, 0., 4.39444870e-01, 4.43076104e-01,
          4.43076104e-01, 0., 0., 4.43076104e-01, 4.43076104e-01,
          1.18288077e-01, 0., 4.43076104e-01, 4.77026761e-01,
          2.78780252e-01, 0., 0., 4.77026761e-01, 4.77026761e-01,
          8.54332075e-02, 0., 4.77026761e-01, 5.41911781e-01, 0.,
          3.98574248e-02, 2.79611945e-01, 5.41911781e-01, 1.82039678e-01,
          2.59488821e-02, 0., 5.41911781e-01, 4.63897049e-01, 0.,
          9.98534486e-02, 4.63897049e-01, 4.63897049e-01, 0., 0.,
          3.52978587e-01, 4.63897049e-01, 4.43403542e-01, 0.,
          1.11970872e-01, 4.43403542e-01, 4.43403542e-01, 0., 0.,
          4.43403542e-01, 4.43403542e-01, 4.16012347e-01, 0.,
          1.90432429e-01, 4.43351030e-01, 4.43351030e-01, 0., 0.,
          4.43351030e-01, 4.43351030e-01, 2.87134260e-01, 0.,
          2.59021521e-01, 4.56619650e-01, 4.56619650e-01, 0.,
          1.09063283e-01, 4.56619650e-01, 4.56619650e-01, 4.78251994e-01,
          0., 3.99950780e-02, 2.80577600e-01, 0., 0., 4.78251994e-01,
          4.78251994e-01, 4.78251994e-01, 1.36319682e-01, 0., 0., 0., 0.,
          0., 5.70298791e-01, 5.70298791e-01, 5.70298791e-01, 0., 0., 0.,
          0., 0., 0., 0., 0., 0., 0., 0., 0., 0., 0., 0., 0., 0., 0., 0.,
          0., 0., 0., 0., 0., 0., 0., 0., 0., 0., 0., 0., 0., 0., 0., 0.,
          0., 0., 0., 0., 0., 0., 0., 0., 0., 0., 5.75688422e-01,
          5.75688422e-01, 5.75688422e-01, 0., 0., 0., 0., 0., 0.,
          5.68920732e-01, 5.68920732e-01, 5.68920732e-01, 0., 0.,
          1.32342622e-01, 7.38636330e-02, 1.83329433e-02, 0.,
          4.76947635e-01, 4.76947635e-01, 2.56406993e-01, 0.,
          6.71423152e-02, 4.76947635e-01, 4.76947635e-01, 1.22749619e-01,
          0., 5.20869315e-01, 5.20869315e-01, 2.64156121e-03, 0.,
          2.44498089e-01, 5.20869315e-01, 3.40369999e-01, 3.90884355e-02,
          6.09731302e-02, 4.16512012e-01, 4.79292125e-01, 0., 0.,
          4.89095777e-01, 4.89095777e-01, 3.11341107e-01, 0.,
          1.28643945e-01, 8.64658281e-02, 3.99519987e-02, 0., 0.,
          6.69698179e-01, 6.69698179e-01, 2.88700461e-01, 0.,
          6.24702163e-02, 0., 0., 0., 0., 6.99031353e-01, 6.99031353e-01,
          1.25427827e-01, 0., 0., 0., 0., 7.95839131e-02, 5.58305264e-01,
          7.39448190e-01, 3.53909850e-01, 5.04481532e-02, 0., 0., 0., 0.,
          1.91352516e-01, 6.91549242e-01, 6.91549242e-01, 0., 0., 0., 0.,
          5.93669303e-02, 0., 3.32850426e-01, 6.55699849e-01,
          6.55699849e-01, 0., 0., 8.44637230e-02, 1.10096842e-01,
          2.06477284e-01, 0., 2.72477031e-01, 4.68626320e-01,
          4.68626320e-01, 0., 0., 4.68626320e-01, 4.68626320e-01,
          4.73562032e-02, 0., 2.46340036e-01, 5.55178583e-01,
          8.20010602e-02, 0., 1.16610434e-02, 5.55178583e-01,
          5.55178583e-01, 3.77480462e-02, 2.40699127e-02, 3.88026774e-01,
          5.15368164e-01, 0., 0., 2.13239416e-01, 5.15368164e-01,
          5.15368164e-01, 1.55995565e-03, 2.01507844e-02, 9.12894011e-02,
          2.16331169e-01, 0., 0., 4.10811990e-01, 6.20281756e-01,
          6.20281756e-01, 0., 0., 0., 0., 0., 0., 5.75688422e-01,
          5.75688422e-01, 5.75688422e-01, 0., 0., 0., 0., 0., 0., 0., 0.,
          0., 0., 0., 0., 0., 0., 0., 0., 0., 0., 0., 0., 0., 0., 0., 0.,
          0., 0., 0., 0., 0., 0., 0., 0., 0., 0., 0., 0., 5.75688422e-01,
          5.75688422e-01, 5.75688422e-01, 0., 0., 0., 0., 0., 0.,
          4.40237015e-01, 4.40237015e-01, 4.40237015e-01, 0., 0.,
          4.40237015e-01, 4.40237015e-01, 1.62970185e-01, 0.,
          4.39285576e-01, 4.39285576e-01, 4.39285576e-01, 0., 0.,
          4.39285576e-01, 4.39285576e-01, 1.75365224e-01, 0.,
          2.74420291e-01, 4.78955626e-01, 6.61610812e-02, 0., 0.,
          5.81445634e-01, 5.81445634e-01, 9.46236700e-02, 0.,
          6.64633978e-03, 1.10659664e-02, 0., 0., 1.32026702e-01,
          8.15023422e-01, 5.56781352e-01, 0., 0., 0., 0., 0., 0.,
          8.84865880e-01, 4.51103687e-01, 6.43026680e-02, 0., 0., 0., 0.,
          0., 0., 0., 0., 0., 0., 0., 0., 0., 0., 0., 0., 0., 0., 0., 0.,
          0., 0., 0., 0., 0., 0., 0., 0., 0., 0., 0., 1.56177670e-01,
          6.95938706e-01, 6.95938706e-01, 0., 0., 0., 0., 0., 0.,
          5.21310747e-01, 7.59379089e-01, 3.79075527e-01, 0., 0.,
          1.48703177e-02, 8.93128943e-03, 0., 1.02349497e-01,
          5.27579725e-01, 5.27579725e-01, 1.91991753e-03, 0.,
          1.12969376e-01, 5.27579725e-01, 3.69417191e-01, 0.,
          1.20380171e-01, 4.42963600e-01, 4.42963600e-01, 0., 0.,
          4.42963600e-01, 4.42963600e-01, 4.42963600e-01, 0.,
          1.67730033e-01, 4.39880133e-01, 4.39880133e-01, 0., 0.,
          4.39880133e-01, 4.39880133e-01, 4.39880133e-01, 0.,
          5.77704562e-03, 1.93017684e-02, 1.38245737e-02, 0., 0.,
          5.75516045e-01, 5.75516045e-01, 5.75516045e-01, 0., 0., 0., 0.,
          0., 0., 0., 0., 0., 0., 0., 0., 0., 0., 0., 0., 0., 0., 0., 0.,
          0., 0., 0., 0., 0., 0., 0., 0., 0., 0., 0., 0., 0., 0., 0., 0.,
          5.73892891e-01, 5.73892891e-01, 5.73892891e-01, 0., 0., 0.,
          7.47608840e-02, 2.49202941e-02, 0., 3.35925728e-01,
          4.32183325e-01, 4.32183325e-01, 0., 0., 4.32183325e-01,
          4.32183325e-01, 3.68384659e-01, 0., 3.50477785e-01,
          4.36254174e-01, 4.36254174e-01, 0., 0., 4.36254174e-01,
          4.36254174e-01, 3.33971053e-01, 0., 1.26397815e-02,
          2.52624545e-02, 1.26527380e-02, 0., 0., 6.53054833e-01,
          6.53054833e-01, 3.73578429e-01, 0., 0., 0., 0., 0., 0.,
          9.81029928e-01, 1.39841110e-01, 0., 0., 0., 0., 0., 0., 0., 0.,
          0., 0., 0., 0., 0., 0., 0., 0., 0., 0., 0., 0., 0., 0., 0., 0.,
          0., 0., 0., 0., 0., 0., 0., 0., 0., 0., 0., 0., 0., 0., 0., 0.,
          0., 0., 0., 0., 0., 0., 0., 0., 0., 1.40422478e-01,
          9.85106170e-01, 0., 0., 0., 0., 0., 0., 3.89496773e-01,
          6.48059964e-01, 6.48059964e-01, 0., 0., 1.56429876e-02,
          3.57472561e-02, 1.83384381e-02, 0., 2.67968863e-01,
          4.29860115e-01, 4.29860115e-01, 0., 0., 4.29860115e-01,
          4.29860115e-01, 4.29860115e-01, 0., 3.75423074e-01,
          4.38978285e-01, 4.38978285e-01, 0., 0., 4.38978285e-01,
          4.38978285e-01, 2.89594412e-01, 0., 7.82195032e-02,
          2.59146541e-01, 1.71791047e-01, 0., 0., 5.45211852e-01,
          5.45211852e-01, 5.45211852e-01, 0., 0., 0., 0., 0., 0.,
          6.40789330e-01, 6.40789330e-01, 4.15187269e-01, 0., 0., 0., 0.,
          0., 0., 0., 0., 0., 0., 0., 0., 0., 0., 0., 0., 0., 0.,
          5.74918389e-01, 5.16308732e-02, 0., 0., 0., 0., 0.,
          5.74918389e-01, 5.74918389e-01, 4.98969495e-01, 5.26646793e-01,
          5.26646793e-01, 0., 0., 1.43685460e-01, 3.51456046e-01,
          1.41539142e-01, 1.63878486e-01, 1.14887565e-01, 4.43346024e-01,
          4.43346024e-01, 0., 0., 4.43346024e-01, 4.43346024e-01,
          4.42887574e-01, 0., 5.26583605e-02, 3.00503463e-01,
          4.74916071e-01, 0., 0., 4.74916071e-01, 4.74916071e-01,
          4.74916071e-01, 0., 0., 0., 0., 0., 0., 5.75688422e-01,
          5.75688422e-01, 5.75688422e-01, 0., 0., 0., 0., 0., 0., 0., 0.,
          0., 0., 0., 0., 0., 0., 0., 0., 0., 0., 0., 0., 0., 0., 0., 0.,
          0., 0., 0., 0., 0., 0., 0., 0., 0., 0., 0., 0., 0., 0., 0., 0.,
          0., 0., 0., 0., 0., 0., 0., 0., 0., 0., 0., 0., 0., 0., 0., 0.,
          0., 0., 0., 0., 0., 0., 0., 0., 0., 5.75688422e-01,
          5.75688422e-01, 5.75688422e-01, 0., 0., 0., 0., 0., 0.,
          4.50237185e-01, 4.50237185e-01, 4.50237185e-01, 0., 0.,
          4.50237185e-01, 4.05863136e-01, 1.41151428e-01, 0.,
          3.98307174e-01, 4.32237208e-01, 4.32237208e-01, 0., 0.,
          4.32237208e-01, 4.32237208e-01, 2.99529314e-01, 0.,
          2.17282981e-01, 5.05583704e-01, 3.19810092e-01, 0., 0.,
          5.05583704e-01, 5.05583704e-01, 2.80384839e-01, 0., 0., 0., 0.,
          0., 0., 6.70628965e-01, 6.70628965e-01, 3.06298077e-01,
          7.04615593e-01, 0., 0., 0., 0., 0., 0., 0., 7.04615593e-01,
          7.01493204e-01, 0., 0., 0., 0., 0., 0., 0., 7.01493204e-01,
          5.18114269e-01, 3.81502211e-02, 3.90516478e-03, 2.73959152e-02,
          5.18114269e-01, 0., 0., 4.32755470e-01, 5.18114269e-01,
          3.56843084e-01, 3.56843084e-01, 3.48864555e-01, 3.56843084e-01,
          3.56843084e-01, 2.20420156e-02, 3.56843084e-01, 3.31994802e-01,
          3.56843084e-01, 1.85507804e-01, 4.50294018e-01, 4.50294018e-01,
          3.74472886e-01, 0., 7.77352303e-02, 4.50294018e-01,
          4.50294018e-01, 6.12982735e-02, 5.94486520e-02, 2.42612198e-01,
          4.48479742e-01, 1.23357683e-01, 0., 0., 5.98031223e-01,
          5.98031223e-01, 0., 0., 0., 0., 0., 0., 0., 7.04615593e-01,
          7.04615593e-01, 0., 0., 0., 0., 0., 0., 0., 0., 0., 0., 0., 0.,
          0., 0., 0., 0., 0., 0., 0., 0., 0., 0., 0., 0., 0., 0., 0., 0.,
          0., 0., 0., 0., 0., 0., 0., 0., 0., 0., 0., 0., 0., 0., 0., 0.,
          0., 0., 0., 0., 0., 0., 0., 0., 0., 0., 0., 0., 0., 0., 0., 0.,
          0., 0., 0., 0., 0., 4.86006975e-01, 8.68980050e-01, 0., 0., 0.,
          0., 0., 0., 0., 6.27811849e-01, 6.27811849e-01, 3.10443312e-01,
          0., 0., 2.86483139e-01, 1.59693301e-01, 3.85586396e-02, 0.,
          4.23003644e-01, 5.08189976e-01, 1.37044162e-01, 0., 0.,
          5.08189976e-01, 5.08189976e-01, 1.49800986e-01, 2.55775005e-01,
          4.28740948e-01, 4.28740948e-01, 1.01626210e-01, 2.95730252e-02,
          0., 4.28740948e-01, 4.28740948e-01, 4.28740948e-01,
          6.04581416e-01, 6.76805452e-02, 0., 0., 1.97081313e-01, 0.,
          2.75255710e-01, 3.79128605e-01, 6.04581416e-01, 5.99598885e-01,
          3.90764564e-01, 0., 0., 6.04257267e-03, 0., 0., 3.49631250e-01,
          5.99598885e-01, 7.01800644e-01, 0., 0., 0., 0., 0., 0.,
          8.91410783e-02, 7.01800644e-01, 0., 0., 1.73452087e-02,
          1.21681884e-01, 9.87442434e-01, 0., 0., 0., 0., 0.,
          4.34408039e-01, 4.82351542e-01, 4.82351542e-01, 4.82351542e-01,
          0., 2.71889895e-01, 1.78288460e-01, 5.26487306e-02, 0.,
          4.34219390e-01, 4.46190506e-01, 3.43575537e-01, 0., 0.,
          4.46190506e-01, 4.46190506e-01, 3.02811325e-01, 0.,
          2.21117333e-01, 5.20265341e-01, 1.27414152e-01, 0., 0.,
          5.20265341e-01, 5.20265341e-01, 3.42999786e-01, 0., 0., 0., 0.,
          0., 0., 5.75688422e-01, 5.75688422e-01, 5.75688422e-01, 0., 0.,
          0., 0., 0., 0., 0., 0., 0., 0., 0., 0., 0., 0., 0., 0., 0., 0.,
          0., 0., 0., 0., 0., 0., 0., 0., 0., 0., 0., 0., 0., 0., 0., 0.,
          0., 0., 0., 0., 0., 0., 0., 0., 0., 0., 0., 0., 0., 0., 0., 0.,
          0., 0., 0., 0., 0., 0., 0., 0., 0., 0., 0., 0., 0., 0.,
          3.62094879e-01, 9.27166164e-01, 0., 0., 0., 0., 0., 0.,
          1.19268499e-01, 6.60948217e-01, 6.60948217e-01, 0., 0.,
          8.21544901e-02, 2.99227536e-01, 9.58389342e-02, 0.,
          1.95884183e-02, 4.44942445e-01, 4.87036526e-01, 0., 0.,
          2.91829437e-01, 4.87036526e-01, 4.87036526e-01, 0.,
          6.36074394e-02, 4.68245089e-01, 4.68245089e-01, 0.,
          2.55344450e-01, 4.68245089e-01, 4.68245089e-01, 2.13251010e-01,
          5.98872378e-02, 2.45978266e-01, 4.30507679e-03, 1.24463588e-01,
          5.25373876e-01, 5.25373876e-01, 5.25373876e-01, 1.66038141e-01,
          2.88703479e-02, 2.49565348e-01, 2.64872760e-01, 3.01088784e-02,
          6.16887771e-02, 4.32765454e-01, 8.12317073e-01, 0., 0.,
          2.69395094e-02, 2.62969196e-01, 3.27142477e-01, 0.,
          6.78783804e-02, 4.76187408e-01, 7.38006830e-01, 0., 0.,
          6.40609628e-03, 3.30990106e-01, 0., 0., 0., 0., 0., 0., 0., 0.,
          0., 0., 5.74874222e-01, 5.74874222e-01, 5.74874222e-01, 0., 0.,
          5.03653549e-02, 1.67884510e-02, 0., 0., 3.33555818e-01,
          4.25653547e-01, 4.25653547e-01, 0., 0., 4.25653547e-01,
          4.25653547e-01, 3.99705976e-01, 0., 2.43608117e-01,
          4.32742923e-01, 4.32742923e-01, 0., 0., 4.32742923e-01,
          4.32742923e-01, 4.32742923e-01, 0., 3.73370689e-03,
          1.12011218e-02, 0., 0., 0., 5.75648129e-01, 5.75648129e-01,
          5.75648129e-01, 0., 0., 0., 0., 0., 0., 0., 0., 0., 0., 0., 0.,
          0., 0., 0., 0., 0., 0., 0., 0., 0., 0., 0., 0., 0., 0., 0., 0.,
          0., 0., 0., 0., 0., 0., 0., 0., 0., 0., 0., 0., 0., 0., 0., 0.,
          0., 0., 0., 0., 0., 0., 0., 0., 0., 0., 0., 0., 0., 0., 0., 0.,
          0., 0., 0., 5.75688422e-01, 5.75688422e-01, 5.75688422e-01, 0.,
          0., 0., 0., 0., 0., 4.53626215e-01, 4.53626215e-01,
          4.53626215e-01, 0., 0., 3.82440329e-01, 4.53626215e-01,
          1.61559224e-01, 0., 3.29082400e-01, 4.23902273e-01,
          4.23902273e-01, 0., 0., 4.23902273e-01, 4.23902273e-01,
          4.10728306e-01, 0., 1.49197102e-01, 4.41207081e-01,
          4.41207081e-01, 0., 3.83743108e-03, 4.41207081e-01,
          4.41207081e-01, 4.41207081e-01, 0., 0., 0., 4.94530052e-02,
          3.46927851e-01, 4.67046708e-01, 4.67046708e-01, 4.67046708e-01,
          4.67046708e-01, 0., 0., 0., 7.04283938e-02, 4.94076520e-01,
          8.61586273e-01, 0., 0., 0., 0., 0., 0., 6.69972524e-02,
          4.70006049e-01, 8.75141919e-01, 0., 0., 0., 0., 0., 0., 0., 0.,
          0., 0., 0., 0., 0., 0., 5.65725565e-01, 5.80584705e-01,
          5.80584705e-01, 0., 0., 0., 0., 0., 0., 3.46961617e-01,
          4.42159712e-01, 4.42159712e-01, 0., 0., 4.42159712e-01,
          4.42159712e-01, 3.05254072e-01, 0., 1.82243004e-01,
          4.38726574e-01, 4.38726574e-01, 0., 0., 4.38726574e-01,
          4.38726574e-01, 4.38726574e-01, 0., 6.67128013e-03,
          9.98927057e-02, 5.32323778e-01, 0., 0., 3.66817355e-01,
          5.32323778e-01, 5.32323778e-01, 0., 0., 0., 0., 0., 0., 0.,
          7.04615593e-01, 7.04615593e-01, 0., 0., 0., 0., 0., 0., 0., 0.,
          0., 0., 0., 0., 0., 0., 0., 0., 0., 0., 0., 0., 0., 0., 0., 0.,
          0., 0., 0., 0., 0., 0., 0., 0., 0., 0., 0., 0., 0., 0., 0., 0.,
          0., 0., 0., 0., 0., 7.04615593e-01, 7.04615593e-01, 0., 0., 0.,
          0., 0., 0., 0., 5.81094563e-01, 5.81094563e-01, 5.55555999e-01,
          0., 0., 1.00049816e-01, 1.42616220e-02, 0., 0., 4.28545535e-01,
          4.34963435e-01, 4.34963435e-01, 0., 0., 4.34963435e-01,
          4.34963435e-01, 2.35013008e-01, 0., 4.38701630e-01,
          4.38701630e-01, 4.38701630e-01, 0., 0., 4.38701630e-01,
          4.38701630e-01, 1.82543680e-01, 0., 8.46843570e-02,
          2.00508252e-01, 1.78533614e-01, 0., 0., 5.52339017e-01,
          5.52339017e-01, 5.52339017e-01, 0., 0., 0., 0., 0., 0.,
          5.75688422e-01, 5.75688422e-01, 5.75688422e-01, 0., 0., 0., 0.,
          0., 0., 0., 0., 0., 0., 0., 0., 0., 0., 0., 0., 0., 0., 0., 0.,
          0., 0., 0., 0., 0., 0., 0., 0., 0., 4.44470346e-01,
          6.30930603e-01, 6.30930603e-01, 0., 0., 0., 0., 0., 0.,
          2.80631810e-01, 6.69533491e-01, 6.69533491e-01, 0., 0.,
          6.08558841e-02, 1.07528262e-01, 5.23991659e-02, 0.,
          1.98760424e-02, 3.41531783e-01, 5.26654065e-01, 0., 0.,
          2.13560045e-01, 5.26654065e-01, 5.26654065e-01, 1.17517682e-02,
          0., 3.16018462e-01, 5.45821905e-01, 2.73084752e-02, 0.,
          5.75154647e-03, 5.45821905e-01, 5.45821905e-01, 2.29088128e-01,
          0., 8.56042653e-02, 5.50887406e-01, 1.55751482e-01, 0., 0.,
          5.50887406e-01, 5.50887406e-01, 5.75598359e-01, 0.,
          2.49258429e-03, 1.74862351e-02, 0., 0., 0., 5.75598359e-01,
          5.75598359e-01, 5.75688422e-01, 0., 0., 0., 0., 0., 0.,
          5.75688422e-01, 5.75688422e-01, 0., 0., 0., 0., 0., 0., 0., 0.,
          0., 7.04003215e-01, 0., 0., 0., 0., 0., 0., 0., 7.04003215e-01,
          5.75688422e-01, 5.75688422e-01, 0., 0., 0., 0., 0., 0.,
          5.75688422e-01, 6.39283121e-01, 6.39283121e-01, 0., 0., 0.,
          1.09408706e-01, 1.55956857e-02, 0., 4.05016005e-01,
          4.93882716e-01, 4.93882716e-01, 6.84919674e-03, 0.,
          2.96896696e-01, 4.93882716e-01, 4.11803782e-01, 7.42241740e-02,
          4.56613116e-03, 4.78527457e-01, 4.78527457e-01, 2.57514328e-01,
          0., 3.20946947e-02, 4.78527457e-01, 4.78527457e-01,
          1.09190859e-01, 0., 4.39148158e-01, 4.39148158e-01,
          4.39148158e-01, 0., 0., 4.39148158e-01, 4.39148158e-01,
          1.77081734e-01, 0., 3.21176369e-03, 9.02119558e-03,
          1.10211037e-02, 0., 0., 6.20929956e-01, 6.20929956e-01,
          4.71676886e-01, 0., 0., 0., 0., 0., 0., 0., 9.35707569e-01,
          3.11902493e-01, 0., 0., 0., 0., 0., 0., 0., 0., 0., 0., 0., 0.,
          0., 0., 0., 0., 0., 0., 0., 0., 0., 0., 0., 0., 0., 0., 0., 0.,
          0., 0., 0., 0., 0., 0., 0., 0., 0., 0., 0., 5.42321205e-01,
          8.35196435e-01, 0., 0., 0., 0., 0., 0., 0., 5.45044839e-01,
          7.80816138e-01, 0., 0., 0., 2.50607193e-01, 1.50517642e-01,
          1.99518874e-01, 0., 2.73691982e-01, 5.22082448e-01,
          2.49721229e-01, 0., 0., 5.22082448e-01, 5.22082448e-01,
          2.70377129e-01, 0., 2.32696280e-01, 4.65858221e-01,
          4.65858221e-01, 0., 0., 4.65858221e-01, 4.65858221e-01,
          4.41915125e-01, 0., 1.38350070e-01, 4.41915125e-01,
          4.41915125e-01, 0., 0., 4.41915125e-01, 4.41915125e-01,
          4.74831104e-01, 0., 4.31277342e-02, 3.02554101e-01,
          4.74831104e-01, 0., 0., 4.74831104e-01, 4.74831104e-01,
          5.10154426e-01, 2.92965263e-01, 3.37892910e-03, 2.37042103e-02,
          3.57393920e-01, 0., 0., 5.10154426e-01, 5.10154426e-01,
          5.37904978e-01, 5.17852306e-01, 0., 0., 3.66362721e-01,
          7.85128251e-02, 1.11916270e-02, 8.52205604e-02, 5.37904978e-01,
          4.58173573e-01, 4.58173573e-01, 0., 0., 4.58173573e-01,
          3.90679091e-01, 5.56894280e-02, 0., 4.58173573e-01,
          4.38536704e-01, 4.38536704e-01, 0., 0., 4.38536704e-01,
          4.38536704e-01, 2.16077730e-01, 0., 4.23877597e-01,
          4.77302313e-01, 4.77302313e-01, 0., 0., 4.30192292e-01,
          4.77302313e-01, 2.69076735e-01, 7.90295750e-03, 2.32916310e-01,
          5.43798804e-01, 5.43798804e-01, 6.37136400e-03, 0.,
          5.00401817e-02, 5.43798804e-01, 3.22361261e-01, 1.25100454e-02,
          2.82861404e-02, 8.90733004e-02, 1.55582249e-01, 2.18332522e-02,
          0., 0., 7.67240345e-01, 6.08646750e-01, 2.48431265e-02, 0., 0.,
          0., 0., 0., 0., 6.88391864e-01, 6.88391864e-01, 2.12981924e-01,
          0., 0., 0., 0., 0., 0., 0., 0., 0., 0., 0., 0., 0., 0., 0., 0.,
          0., 0., 0., 0., 0., 0., 0., 0., 0., 0., 0., 0., 0., 0., 0., 0.,
          0., 0., 0., 0., 0., 0., 0., 0., 0., 0., 0., 0., 0., 0., 0., 0.,
          0., 0., 0., 0., 0., 0., 0., 0., 0., 5.42321205e-01,
          8.35196435e-01, 0., 0., 0., 0., 0., 1.65989995e-02, 0.,
          4.25548166e-01, 6.30723834e-01, 6.30723834e-01, 0., 0.,
          1.02818683e-01, 7.83531368e-02, 3.00370395e-01, 0.,
          2.52724797e-01, 4.58619356e-01, 4.58619356e-01, 0., 0.,
          4.58619356e-01, 4.58619356e-01, 4.43125457e-01, 0.,
          1.17357381e-01, 4.43125457e-01, 4.43125457e-01, 0., 0.,
          4.43125457e-01, 4.43125457e-01, 4.58141625e-01, 0.,
          1.07317254e-01, 4.58141625e-01, 4.58141625e-01, 0., 0.,
          3.79910380e-01, 4.58141625e-01, 5.54636002e-01, 3.78159098e-02,
          1.08595220e-02, 7.61828423e-02, 5.54636002e-01, 0., 0.,
          2.53468454e-01, 5.54636002e-01, 5.39491355e-01, 1.80865169e-01,
          0., 0., 5.39491355e-01, 2.80782044e-01, 4.00241353e-02,
          9.11418796e-02, 5.39491355e-01, 4.44069862e-01, 4.44069862e-01,
          0., 0., 4.44069862e-01, 4.44069862e-01, 9.78466049e-02, 0.,
          4.44069862e-01, 4.43210125e-01, 4.43210125e-01, 0., 0.,
          4.43210125e-01, 4.43210125e-01, 1.15743712e-01, 0.,
          4.43210125e-01, 4.63262409e-01, 4.63262409e-01, 0., 0.,
          4.63262409e-01, 4.63262409e-01, 2.56484330e-01, 0.,
          2.66721487e-01, 9.67290998e-02, 1.17025323e-01, 0., 0.,
          3.05036008e-01, 7.68043101e-01, 5.34459054e-01, 0.,
          2.64424253e-02, 0., 0., 0., 0., 0., 8.47728431e-01,
          5.22395611e-01, 0., 0., 0., 0., 0., 0., 0., 0., 0., 0., 0., 0.,
          0., 0., 0., 0., 0., 0., 0., 0., 0., 0., 0., 0., 0., 0., 0., 0.,
          0., 0., 0., 0., 0., 0., 0., 0., 0., 0., 0., 0., 0., 0., 0., 0.,
          0., 0., 0., 0., 0., 0., 0., 0., 0., 0., 0., 0., 0., 0., 0., 0.,
          0., 0., 0., 0., 0., 0., 0., 0., 0., 0., 0., 0., 0., 0., 0., 0.,
          3.46255213e-01, 6.60874248e-01, 6.60874248e-01, 0., 0., 0., 0.,
          7.86557328e-03, 0., 3.08728904e-01, 6.70027435e-01,
          6.70027435e-01, 0., 0., 0., 7.86557328e-03, 1.22220643e-01, 0.,
          2.71890372e-01, 6.54853284e-01, 6.54853284e-01, 0., 0.,
          1.08608589e-01, 1.87452242e-01, 3.77753705e-01, 0.,
          1.31115496e-01, 5.63503921e-01, 5.63503921e-01, 0., 0.,
          9.68524516e-02, 4.35924500e-01, 4.72189635e-01, 0.,
          4.51183645e-03, 3.16518992e-02, 6.52594388e-01, 0., 0.,
          1.55049175e-01, 5.65313995e-01, 5.72733581e-01, 8.53409171e-02,
          0., 0., 5.72733581e-01, 0., 0., 5.40975817e-02, 5.72733581e-01,
          4.80273843e-01, 1.94133967e-01, 0., 0., 5.39068103e-01,
          5.39068103e-01, 1.13213733e-01, 0., 3.63674939e-01,
          2.08846614e-01, 1.14357956e-01, 0., 0., 6.50780261e-01,
          6.50780261e-01, 2.64825970e-01, 0., 1.40161991e-01,
          1.28163099e-02, 6.49058353e-03, 0., 0., 6.62781358e-01,
          6.62781358e-01, 3.38436216e-01, 0., 8.91799480e-03, 0., 0., 0.,
          0., 6.63755000e-01, 6.63755000e-01, 3.35010469e-01, 0., 0., 0.,
          0., 0., 0., 0., 0., 0., 0., 0., 0., 0., 0., 0., 0., 0., 0., 0.,
          0., 0., 0., 0., 0., 0., 0., 0., 0., 0., 0., 0., 0., 0., 0., 0.,
          0., 0., 0., 0., 0., 0., 0., 0., 0., 0., 0., 0., 0., 0., 0., 0.,
          0., 0., 0., 0., 0., 0., 0., 0., 0., 0., 0., 0., 0., 0., 0., 0.,
          0., 0., 0., 0., 0., 0., 0., 0., 0., 0., 0., 0., 0., 0., 0., 0.,
          0., 0., 0., 0., 0., 0., 0., 0., 0., 0., 0., 0., 0., 0., 0., 0.,
          0., 0., 0., 0., 5.17203212e-02, 3.62833738e-01, 9.25442398e-01,
          0., 0., 0., 0., 0., 0., 1.05939902e-01, 7.00636387e-01,
          7.00636387e-01, 0., 0., 0., 0., 0., 0., 3.76391131e-03,
          2.64049806e-02, 9.94669080e-01, 0., 0., 0., 0., 0., 0., 0., 0.,
          9.95024860e-01, 0., 0., 0., 0., 0., 0., 0., 0., 7.26271510e-01,
          6.75288498e-01, 9.62591395e-02, 0., 0., 0., 0., 0., 0.,
          8.66777718e-01, 4.85043168e-01, 6.91405758e-02, 0., 0., 0., 0.,
          0., 0., 0., 0., 0., 0., 0., 0., 0., 0., 0., 0., 0., 0., 0., 0.,
          0., 0., 0., 0., 0., 0., 0., 0., 0., 0., 0., 0., 0., 0., 0., 0.,
          0., 0., 0., 0., 0., 0., 0., 0., 0., 0., 0., 0., 0., 0., 0., 0.,
          0., 0., 0., 0., 0., 0., 0., 0., 0., 0., 0., 0., 0., 0., 0., 0.,
          0., 0., 0., 0., 0., 0., 0., 0., 0., 0., 0., 0., 0., 0., 0., 0.,
          0., 0., 0., 0., 0., 0., 0., 0., 0., 0., 0., 0., 0., 0., 0., 0.,
          0., 0., 0., 0., 0., 0., 0., 0., 0., 0., 0., 0., 0., 0., 0., 0.,
          0., 0., 0., 0., 0., 0., 0., 0., 0., 0., 0., 0., 0., 0., 0., 0.,
          0., 0., 0., 0., 0., 0., 0., 0., 0., 0., 0., 0., 0., 0., 0., 0.,
          0., 0., 0., 0., 0., 0., 0., 0., 0., 0., 0., 0., 0., 0., 0., 0.,
          0., 0., 0., 0., 0., 0., 0., 0., 0., 0., 0., 0., 0., 0., 0., 0.,
          0., 0., 0., 0., 0., 0., 0., 0., 0., 0., 0., 0., 0., 0., 0., 0.,
          0., 0., 0., 0., 0., 0., 0., 0., 0., 0., 0., 0., 0., 0., 0., 0.,
          0., 0., 0., 0., 0., 0., 0., 0., 0., 0., 0., 0., 0., 0., 0., 0.,
          0., 0., 0., 0., 0., 0., 0., 0. ]
      - [ 0., 0., 0., 0., 0., 0., 0., 0., 0., 0., 0., 0., 0., 0., 0., 0.,
          0., 0., 0., 0., 0., 0., 0., 0., 0., 0., 0., 0., 0., 0., 0., 0.,
          0., 0., 0., 0., 0., 0., 0., 0., 0., 0., 0., 0., 0., 0., 0., 0.,
          0., 0., 0., 0., 0., 0., 0., 0., 0., 0., 0., 0., 0., 0., 0., 0.,
          0., 0., 0., 0., 0., 0., 0., 0., 4.67769913e-02, 7.03841567e-01,
          7.03841567e-01, 0., 0., 0., 0., 0., 0., 1.26721123e-02,
          4.46099997e-01, 4.46099997e-01, 0., 0., 4.46099997e-01,
          4.46099997e-01, 4.46099997e-01, 1.89045910e-02, 0., 0., 0., 0.,
          0., 5.75438857e-01, 5.75438857e-01, 5.75438857e-01,
          2.93986779e-02, 0., 0., 0., 0., 0., 0., 0., 0., 0., 0., 0., 0.,
          0., 0., 0., 0., 0., 0., 0., 0., 0., 0., 0., 0., 0., 0., 0., 0.,
          0., 0., 0., 0., 0., 0., 0., 0., 0., 0., 0., 0., 0., 0., 0., 0.,
          0., 0., 0., 0., 0., 0., 0., 0., 0., 0., 0., 0., 0., 0., 0., 0.,
          0., 0., 0., 0., 0., 0., 0., 0., 0., 0., 0., 0., 0., 0., 0., 0.,
          0., 0., 0., 0., 0., 0., 0., 0., 0., 0., 0., 0., 0., 0., 0., 0.,
          0., 0., 0., 0., 0., 0., 0., 0., 0., 0., 0., 0., 0., 0., 0., 0.,
          0., 0., 0., 0., 0., 0., 0., 0., 0., 5.78512073e-01,
          5.69974303e-01, 0., 0., 0., 0., 0., 0., 5.78512073e-01,
          5.75688422e-01, 5.75688422e-01, 0., 0., 0., 0., 0., 0.,
          5.75688422e-01, 5.74792445e-01, 5.74792445e-01, 0., 0.,
          5.56894206e-02, 0., 0., 0., 5.74792445e-01, 4.73376811e-01,
          4.73376811e-01, 4.43452418e-01, 0., 3.37407172e-01,
          1.10779062e-01, 1.57910250e-02, 0., 4.73376811e-01,
          3.73970479e-01, 3.73970479e-01, 3.73970479e-01, 1.37471864e-02,
          3.73970479e-01, 1.30757123e-01, 3.73970479e-01, 3.73970479e-01,
          3.73970479e-01, 4.76923048e-01, 0., 2.10069660e-02,
          1.47370234e-01, 4.72979128e-01, 4.91354056e-02, 2.54139483e-01,
          4.76923048e-01, 4.76923048e-01, 5.71837127e-01, 0.,
          1.29798602e-03, 9.10576526e-03, 1.14944078e-01, 0., 0.,
          5.71837127e-01, 5.71837127e-01, 5.75688422e-01, 0., 0., 0., 0.,
          0., 0., 5.75688422e-01, 5.75688422e-01, 5.32130837e-01, 0., 0.,
          0., 0., 0., 0., 5.96189499e-01, 5.96189499e-01, 0., 0., 0., 0.,
          0., 0., 0., 0., 0., 0., 0., 0., 0., 0., 0., 0., 0., 0., 0., 0.,
          0., 0., 0., 0., 0., 0., 0., 0., 0., 0., 0., 0., 0., 0., 0., 0.,
          0., 0., 0., 0., 0., 0., 0., 0., 0., 0., 0., 0., 0., 0., 0., 0.,
          0., 0., 0., 0., 0., 0., 0., 0., 0., 0., 0., 0., 0., 0., 0., 0.,
          0., 0., 0., 0., 0., 0., 0., 0., 0., 0., 0., 0., 0.,
          7.04615593e-01, 7.04615593e-01, 0., 0., 0., 0., 0., 0., 0.,
          5.98836839e-01, 5.98836839e-01, 0., 0., 5.36959358e-02,
          9.58852470e-02, 1.36679821e-02, 0., 5.14339805e-01,
          4.43973154e-01, 4.43973154e-01, 0., 0., 4.43973154e-01,
          4.43973154e-01, 1.00020789e-01, 0., 4.43973154e-01,
          4.42060292e-01, 4.42060292e-01, 0., 0., 4.42060292e-01,
          4.42060292e-01, 1.36006117e-01, 0., 4.42060292e-01,
          4.78652686e-01, 2.60882795e-01, 0., 0., 4.78652686e-01,
          4.78652686e-01, 1.03565238e-01, 0., 4.78652686e-01,
          5.14308393e-01, 3.04649115e-01, 6.72569452e-03, 4.71827835e-02,
          5.14308393e-01, 1.68400094e-01, 2.40046270e-02, 2.78040886e-01,
          5.14308393e-01, 4.85899895e-01, 0., 9.84491855e-02,
          4.85899895e-01, 4.85899895e-01, 0., 0., 2.02632457e-01,
          4.85899895e-01, 4.42073554e-01, 0., 1.35790944e-01,
          4.42073554e-01, 4.42073554e-01, 0., 0., 4.42073554e-01,
          4.42073554e-01, 4.42949921e-01, 0., 1.20632365e-01,
          4.42949921e-01, 4.42949921e-01, 0., 0., 4.42949921e-01,
          4.42949921e-01, 5.65149963e-01, 0., 2.26460490e-02,
          1.58868924e-01, 1.02081865e-01, 0., 0., 5.65149963e-01,
          5.65149963e-01, 4.48397726e-01, 0., 0., 0., 0., 0., 0.,
          6.29545093e-01, 6.29545093e-01, 0., 0., 0., 0., 0., 0., 0., 0.,
          0., 0., 0., 0., 0., 0., 0., 0., 0., 0., 0., 0., 0., 0., 0., 0.,
          0., 0., 0., 0., 0., 0., 0., 0., 0., 0., 0., 0., 0., 0., 0., 0.,
          0., 0., 0., 0., 0., 0., 0., 0., 0., 0., 0., 0., 0., 0., 0., 0.,
          0., 0., 0., 0., 0., 0., 0., 7.04615593e-01, 7.04615593e-01, 0.,
          0., 0., 0., 0., 0., 0., 6.77215993e-01, 6.77215993e-01, 0., 0.,
          0., 2.72915542e-01, 3.89028043e-02, 0., 0., 5.33593118e-01,
          5.33593118e-01, 0., 0., 2.54429579e-01, 5.33593118e-01,
          2.73890316e-01, 0., 2.74991114e-02, 4.56224203e-01,
          4.56224203e-01, 0., 0., 4.56224203e-01, 4.56224203e-01,
          2.06629679e-01, 0., 3.46677154e-01, 4.39199358e-01,
          4.39199358e-01, 0., 0., 4.39199358e-01, 4.39199358e-01,
          1.76443830e-01, 0., 4.39199358e-01, 4.67841089e-01,
          1.01975992e-01, 0., 0., 5.41181982e-01, 5.41181982e-01,
          1.19361483e-01, 0., 4.06593144e-01, 3.82154763e-01,
          1.09098494e-01, 0., 0., 8.26931953e-01, 0., 0., 9.70562920e-02,
          3.74922186e-01, 4.06117111e-01, 0., 8.54823291e-02,
          5.51595747e-01, 5.51595747e-01, 0., 0., 8.15132037e-02,
          4.55074936e-01, 4.38267082e-01, 0., 1.87701598e-01,
          4.38267082e-01, 4.38267082e-01, 0., 0., 4.38267082e-01,
          4.38267082e-01, 3.28381211e-01, 0., 1.92269325e-01,
          4.61137831e-01, 4.61137831e-01, 0., 0., 4.61137831e-01,
          4.61137831e-01, 1.66034937e-01, 1.39665343e-02, 3.01402450e-01,
          4.68166023e-01, 4.68166023e-01, 0., 0., 4.68166023e-01,
          4.68166023e-01, 6.09368719e-02, 3.12512219e-02, 1.43426567e-01,
          3.48470449e-01, 9.07721594e-02, 0., 2.03426242e-01,
          6.31419539e-01, 6.31419539e-01, 0., 0., 0., 0., 0., 0.,
          5.75688422e-01, 5.75688422e-01, 5.75688422e-01, 0., 0., 0., 0.,
          0., 0., 0., 0., 0., 0., 0., 0., 0., 0., 0., 0., 0., 0., 0., 0.,
          0., 0., 0., 0., 0., 0., 0., 0., 0., 0., 0., 0., 0., 0., 0., 0.,
          0., 0., 0., 0., 0., 0., 0., 0., 0., 5.75688422e-01,
          5.75688422e-01, 5.75688422e-01, 0., 0., 0., 0., 0., 0.,
          5.72978914e-01, 5.72978914e-01, 5.72978914e-01, 0., 0.,
          9.57982466e-02, 1.36555815e-02, 0., 0., 4.87521946e-01,
          4.87521946e-01, 1.88883945e-01, 0., 0., 4.87521946e-01,
          4.87521946e-01, 9.35041532e-02, 0., 5.48207819e-01,
          5.48207819e-01, 2.46212706e-02, 0., 6.84142765e-03,
          5.48207819e-01, 3.03557813e-01, 1.13898832e-02, 0.,
          2.96301097e-01, 4.74623114e-01, 0., 0., 3.98462176e-01,
          5.97109020e-01, 4.06864822e-01, 0., 1.12372739e-02,
          1.18132634e-02, 5.98260993e-03, 0., 0., 6.54006183e-01,
          6.54006183e-01, 3.71186703e-01, 0., 8.22004303e-03, 0., 0., 0.,
          0., 6.87223196e-01, 6.87223196e-01, 2.20427275e-01, 0., 0., 0.,
          0., 0., 0., 9.95024860e-01, 0., 0., 0., 0., 0., 0.,
          1.54268682e-01, 6.96150780e-01, 6.96150780e-01, 0., 0., 0., 0.,
          0., 0., 3.82764101e-01, 6.50659621e-01, 6.50659621e-01, 0., 0.,
          1.43384682e-02, 8.61185417e-03, 4.64421026e-02, 0.,
          4.14205700e-01, 6.06853127e-01, 4.61166054e-01, 0., 0.,
          3.97443503e-01, 2.85151362e-01, 4.18410543e-03, 5.23232222e-02,
          3.83572429e-01, 5.21328568e-01, 1.51977822e-01, 0.,
          8.03918689e-02, 5.21328568e-01, 5.21328568e-01, 0.,
          1.14879444e-01, 4.61723626e-01, 4.61723626e-01, 1.81809980e-02,
          0., 3.59312326e-01, 4.61723626e-01, 4.61723626e-01, 0.,
          2.78430674e-02, 1.03838071e-01, 1.42472938e-01, 0., 0.,
          5.66417873e-01, 5.66417873e-01, 5.66417873e-01, 0., 0., 0., 0.,
          0., 0., 6.28266871e-01, 6.28266871e-01, 4.51983124e-01, 0., 0.,
          0., 0., 0., 0., 0., 0., 0., 0., 0., 0., 0., 0., 0., 0., 0., 0.,
          0., 0., 0., 0., 0., 0., 0., 0., 0., 0., 0., 0., 0., 0., 0., 0.,
          0., 0., 5.75688422e-01, 5.75688422e-01, 5.75688422e-01, 0., 0.,
          0., 0., 0., 0., 4.41961110e-01, 4.41961110e-01, 4.41961110e-01,
          0., 0., 4.41961110e-01, 4.41961110e-01, 1.37612939e-01, 0.,
          4.42420810e-01, 4.42420810e-01, 4.42420810e-01, 0., 0.,
          4.42420810e-01, 4.42420810e-01, 1.29998982e-01, 0.,
          2.77148515e-01, 5.03989041e-01, 1.27633780e-01, 0., 0.,
          5.63276708e-01, 5.63276708e-01, 1.12726048e-01, 0.,
          6.70776144e-03, 1.11682313e-02, 0., 0., 0., 8.22109640e-01,
          5.61926842e-01, 0., 0., 0., 0., 0., 0., 0., 9.81029928e-01,
          1.39841110e-01, 0., 0., 0., 0., 0., 0., 0., 0., 0., 0., 0., 0.,
          0., 0., 0., 0., 0., 0., 0., 0., 0., 0., 0., 0., 0., 0., 0., 0.,
          0., 0., 0., 0., 0., 0., 0., 0., 0., 0., 0., 0., 5.58863223e-01,
          8.24285150e-01, 0., 0., 0., 0., 0., 0., 1.98783755e-01,
          5.50988972e-01, 5.50988972e-01, 0., 0., 1.63573235e-01,
          4.99592513e-01, 2.67313123e-01, 0., 2.40703076e-01,
          4.33067173e-01, 4.33067173e-01, 0., 0., 4.33067173e-01,
          4.33067173e-01, 4.33067173e-01, 0., 1.65041983e-01,
          4.40082997e-01, 4.40082997e-01, 0., 0., 4.40082997e-01,
          4.40082997e-01, 4.40082997e-01, 0., 0., 0., 0., 0., 0.,
          5.75688422e-01, 5.75688422e-01, 5.75688422e-01, 0., 0., 0., 0.,
          0., 0., 0., 0., 0., 0., 0., 0., 0., 0., 0., 0., 0., 0., 0., 0.,
          0., 0., 0., 0., 0., 0., 0., 0., 0., 0., 0., 0., 0., 0., 0., 0.,
          5.70093513e-01, 5.70093513e-01, 5.70093513e-01, 0., 0.,
          5.38873263e-02, 1.22175805e-01, 3.81648056e-02, 0.,
          3.49087149e-01, 4.38491553e-01, 4.38491553e-01, 0., 0.,
          4.38491553e-01, 4.38491553e-01, 3.23510230e-01, 0.,
          4.25861895e-01, 4.25861895e-01, 4.25861895e-01, 0., 0.,
          4.25861895e-01, 4.25861895e-01, 2.98251897e-01, 0.,
          1.83162000e-02, 3.77228558e-02, 2.16807164e-02, 0., 0.,
          6.16877735e-01, 6.16877735e-01, 4.80141759e-01, 0., 0., 0., 0.,
          0., 0., 9.81029928e-01, 1.39841110e-01, 0., 0., 0., 0., 0., 0.,
          0., 0., 0., 0., 0., 0., 0., 0., 0., 0., 0., 0., 0., 0., 0., 0.,
          0., 0., 0., 0., 0., 0., 0., 0., 0., 0., 0., 0., 0., 0., 0., 0.,
          0., 0., 0., 0., 0., 0., 0., 0., 0., 0., 0., 0., 0., 0., 0., 0.,
          0., 0., 0., 5.75524747e-01, 5.75524747e-01, 5.75524747e-01, 0.,
          0., 1.79713853e-02, 1.47102624e-02, 5.23721613e-03, 0.,
          3.43731731e-01, 4.31767911e-01, 4.31767911e-01, 0., 0.,
          4.31767911e-01, 4.31767911e-01, 3.63099933e-01, 0.,
          3.78950357e-01, 4.33818161e-01, 4.33818161e-01, 0., 0.,
          4.33818161e-01, 4.33818161e-01, 3.15071851e-01, 0.,
          2.48223860e-02, 7.44671449e-02, 0., 0., 0., 5.73907018e-01,
          5.73907018e-01, 5.73907018e-01, 0., 0., 0., 0., 0., 0., 0., 0.,
          0., 0., 0., 0., 0., 0., 0., 0., 0., 0., 0., 0., 0., 0., 0., 0.,
          0., 0., 0., 0., 7.04615593e-01, 7.04615593e-01, 0., 0., 0., 0.,
          0., 0., 4.12327558e-01, 5.11387289e-01, 5.11387289e-01, 0., 0.,
          1.13518536e-01, 5.11387289e-01, 1.65654346e-01, 0.,
          2.98468053e-01, 4.25831646e-01, 4.25831646e-01, 0., 0.,
          4.25831646e-01, 4.25831646e-01, 4.25831646e-01, 0.,
          1.36073977e-01, 3.76916260e-01, 4.51070845e-01, 0., 0.,
          4.58755821e-01, 4.58755821e-01, 4.58755821e-01, 0., 0., 0., 0.,
          0., 0., 5.75688422e-01, 5.75688422e-01, 5.75688422e-01, 0., 0.,
          0., 0., 0., 0., 0., 0., 0., 0., 0., 0., 0., 0., 0., 0., 0., 0.,
          0., 0., 0., 0., 0., 0., 0., 0., 0., 0., 0., 0., 0., 0., 0., 0.,
          0., 0., 0., 0., 0., 0., 0., 0., 0., 0., 0., 0., 0., 0., 0., 0.,
          0., 0., 0., 0., 0., 0., 0., 0., 0., 0., 0., 0., 0., 0., 0.,
          5.75688422e-01, 5.75688422e-01, 5.75688422e-01, 0., 0., 0., 0.,
          0., 0., 4.40971375e-01, 4.40971375e-01, 4.40971375e-01, 0., 0.,
          4.40971375e-01, 4.40971375e-01, 1.52696729e-01, 0.,
          4.41890240e-01, 4.41890240e-01, 4.41890240e-01, 0., 0.,
          4.41890240e-01, 4.41890240e-01, 1.38748124e-01, 0.,
          7.26345107e-02, 2.29886442e-01, 8.40635076e-02, 0., 0.,
          5.95525384e-01, 5.95525384e-01, 4.68574971e-01, 0., 0., 0., 0.,
          0., 0., 7.04615593e-01, 7.04615593e-01, 0., 0., 0., 0., 0., 0.,
          0., 0., 0., 0., 0., 0., 0., 0., 0., 0., 0., 0., 0., 0.,
          7.04615593e-01, 7.04615593e-01, 0., 0., 0., 0., 0., 0.,
          1.41484672e-02, 5.50890505e-01, 5.50890505e-01, 0., 0.,
          1.96274027e-01, 5.50890505e-01, 2.12917820e-01, 0.,
          2.85141654e-02, 4.66642469e-01, 4.66642469e-01, 0., 0.,
          3.50958973e-01, 4.66642469e-01, 4.66642469e-01, 1.82469226e-02,
          1.07125770e-02, 1.50956288e-01, 3.99360448e-01, 0., 0.,
          5.10471106e-01, 5.10471106e-01, 5.10471106e-01, 1.75408766e-01,
          0., 0., 0., 0., 0., 9.21864286e-02, 7.01604545e-01,
          7.01604545e-01, 0., 0., 0., 0., 0., 0., 0., 0., 0., 0., 0., 0.,
          0., 0., 0., 0., 0., 0., 0., 0., 0., 0., 0., 0., 0., 0., 0., 0.,
          0., 0., 0., 0., 0., 0., 0., 0., 0., 0., 0., 0., 0., 0., 0., 0.,
          0., 0., 0., 0., 0., 0., 0., 0., 0., 0., 0., 0., 0., 0., 0., 0.,
          0., 0., 0., 0., 2.89825708e-01, 6.02639914e-01, 6.02639914e-01,
          4.28525537e-01, 0., 0., 0., 0., 0., 1.44273758e-01,
          5.12026250e-01, 5.12026250e-01, 2.13317826e-01, 0., 0.,
          5.12026250e-01, 3.76901060e-01, 0., 2.44972967e-02,
          5.11555016e-01, 5.11555016e-01, 9.53414366e-02, 0.,
          2.82275416e-02, 5.11555016e-01, 4.46424931e-01, 6.57968828e-03,
          2.74383370e-03, 1.40503481e-01, 4.09327418e-01, 1.06787719e-02,
          0., 2.31407151e-01, 6.12378597e-01, 6.12378597e-01,
          5.39397560e-02, 0., 0., 0., 0., 0., 0., 7.04615593e-01,
          7.04615593e-01, 0., 0., 0., 0., 0., 0., 0., 0., 0., 0., 0., 0.,
          0., 0., 0., 0., 0., 0., 0., 0., 7.04615593e-01, 7.04615593e-01,
          0., 0., 0., 0., 0., 0., 0., 5.29210508e-01, 5.29210508e-01, 0.,
          0., 7.40298927e-02, 5.29210508e-01, 3.82800519e-01,
          5.00688478e-02, 0., 4.73877668e-01, 4.73877668e-01,
          2.54611492e-01, 0., 1.41665757e-01, 4.73877668e-01,
          4.73877668e-01, 1.10138424e-01, 0., 1.39065415e-01,
          4.29697633e-01, 8.77007544e-02, 0., 1.26117051e-01,
          5.77439725e-01, 5.77439725e-01, 3.15886825e-01, 0., 0., 0., 0.,
          0., 0., 6.90046966e-01, 6.90046966e-01, 2.01945290e-01, 0., 0.,
          0., 0., 0., 0., 0., 0., 0., 0., 0., 0., 0., 0., 0., 0., 0., 0.,
          0., 0., 0., 0., 0., 0., 0., 0., 0., 0., 0., 0., 0., 0., 0., 0.,
          0., 0., 0., 0., 0., 0., 0., 0., 0., 0., 0., 0., 0., 0., 0., 0.,
          0., 0., 0., 0., 0., 0., 0., 0., 0., 0., 0., 0., 0.,
          5.59607089e-01, 5.83529413e-01, 5.83529413e-01, 0., 0., 0., 0.,
          0., 0., 3.22115481e-01, 4.40211058e-01, 4.40211058e-01, 0., 0.,
          4.40211058e-01, 4.40211058e-01, 3.41615587e-01, 0.,
          2.97532856e-01, 4.55824196e-01, 4.55824196e-01, 0., 0.,
          3.85231107e-01, 4.55824196e-01, 3.67683589e-01, 0.,
          3.65334861e-02, 1.37791201e-01, 2.30891988e-01, 0., 0.,
          5.54026246e-01, 5.54026246e-01, 5.54026246e-01, 0., 0., 0., 0.,
          0., 0., 0., 7.43741333e-01, 6.62891626e-01, 0., 0., 0., 0., 0.,
          0., 0., 0., 0., 0., 0., 0., 0., 0., 0., 0., 0., 0., 0., 0.,
          7.04615593e-01, 7.04615593e-01, 0., 0., 0., 0., 0., 0., 0.,
          4.71556157e-01, 4.71556157e-01, 4.71556157e-01, 0., 0.,
          4.63965118e-01, 3.20879042e-01, 9.98360813e-02, 0.,
          3.81139815e-01, 4.34945881e-01, 4.34945881e-01, 0., 0.,
          4.34945881e-01, 4.34945881e-01, 3.06065559e-01, 0.,
          1.87611178e-01, 4.39531177e-01, 4.33198333e-01, 0., 0.,
          4.39531177e-01, 4.39531177e-01, 4.39531177e-01, 0., 0., 0., 0.,
          0., 0., 5.75688422e-01, 5.75688422e-01, 5.75688422e-01, 0., 0.,
          0., 0., 0., 0., 0., 0., 0., 0., 0., 0., 0., 0., 0., 0., 0., 0.,
          0., 0., 0., 0., 0., 0., 0., 0., 0., 0., 0., 0., 0., 0., 0., 0.,
          0., 0., 0., 0., 0., 0., 0., 0., 0., 0., 0., 0., 0., 0., 0., 0.,
          0., 0., 0., 0., 0., 3.62094879e-01, 9.27166164e-01, 0., 0., 0.,
          0., 0., 0., 5.74294806e-01, 5.74294806e-01, 5.74294806e-01, 0.,
          0., 6.03892170e-02, 3.32765952e-02, 8.22280068e-03, 0.,
          3.48736733e-01, 4.27747697e-01, 4.27747697e-01, 0., 0.,
          4.27747697e-01, 4.27747697e-01, 3.77143830e-01, 0.,
          4.21341330e-01, 4.21341330e-01, 4.21341330e-01, 0., 0.,
          4.21341330e-01, 4.21341330e-01, 3.28859508e-01, 0.,
          2.25531007e-03, 3.28739360e-02, 8.73567164e-02, 0., 0.,
          5.73166549e-01, 5.73166549e-01, 5.73166549e-01, 0., 0., 0., 0.,
          0., 0., 0., 0., 0., 0., 0., 0., 0., 0., 0., 0., 0., 0., 0., 0.,
          0., 0., 0., 0., 0., 0., 0., 0., 0., 3.13947499e-01,
          9.41842496e-01, 0., 0., 0., 0., 0., 0., 0., 5.67864835e-01,
          5.67864835e-01, 5.67864835e-01, 0., 0., 1.36554599e-01,
          8.73971134e-02, 2.51529757e-02, 0., 2.20205456e-01,
          4.35238272e-01, 4.35238272e-01, 0., 0., 4.35238272e-01,
          4.35238272e-01, 4.35238272e-01, 0., 2.48577222e-01,
          4.37638491e-01, 4.37638491e-01, 0., 0., 4.37638491e-01,
          4.37638491e-01, 4.09546316e-01, 0., 8.89524538e-03,
          4.86918949e-02, 1.54379860e-01, 0., 0., 5.68050563e-01,
          5.68050563e-01, 5.68050563e-01, 0., 0., 0., 0., 0., 0., 0.,
          7.04615593e-01, 7.04615593e-01, 0., 0., 0., 0., 0., 0., 0., 0.,
          0., 0., 0., 0., 0., 0., 0., 0., 0., 0., 0., 0., 0., 0., 0., 0.,
          0., 0., 0., 0., 0., 0., 0., 0., 0., 0., 0., 0., 0., 0., 0., 0.,
          0., 0., 0., 0., 0., 6.91408575e-01, 6.91408575e-01,
          1.92370132e-01, 0., 0., 0., 0., 0., 0., 4.56958741e-01,
          4.56958741e-01, 4.56958741e-01, 0., 0., 4.56958741e-01,
          3.89427274e-01, 9.23958197e-02, 0., 4.36454445e-01,
          4.36454445e-01, 4.36454445e-01, 0., 0., 4.36454445e-01,
          4.36454445e-01, 2.07792521e-01, 0., 2.57559925e-01,
          4.51696873e-01, 4.51696873e-01, 0., 0., 4.51696873e-01,
          4.51696873e-01, 3.36200327e-01, 0., 0., 0., 0., 0., 0.,
          5.82161129e-01, 5.82161129e-01, 5.62462211e-01, 0., 0., 0., 0.,
          0., 0., 0., 0., 0., 0., 0., 0., 0., 0., 0., 0., 0., 0., 0., 0.,
          0., 0., 0., 0., 0., 0., 0., 0., 0., 0., 0., 0., 0., 0., 0., 0.,
          0., 0., 5.16222954e-01, 6.03113532e-01, 6.03113532e-01, 0., 0.,
          0., 0., 0., 0., 2.27774650e-01, 4.67301667e-01, 4.67301667e-01,
          0., 0., 3.55183274e-01, 4.67301667e-01, 4.02720153e-01, 0.,
          1.03242517e-01, 4.58043337e-01, 4.58043337e-01, 1.50900595e-02,
          0., 3.81212920e-01, 4.58043337e-01, 4.58043337e-01, 0.,
          8.34781975e-02, 4.53868538e-01, 4.80449826e-01, 2.99467921e-01,
          0., 7.67845521e-03, 4.80449826e-01, 4.80449826e-01,
          3.49273473e-01, 0., 2.00752318e-02, 1.40833840e-01,
          2.80915294e-02, 0., 0., 6.52100980e-01, 6.52100980e-01,
          5.75688422e-01, 0., 0., 0., 0., 0., 0., 5.75688422e-01,
          5.75688422e-01, 5.79460204e-01, 0., 0., 0., 0., 0., 0.,
          4.21735287e-01, 6.92425549e-01, 7.04003215e-01, 0., 0., 0., 0.,
          0., 0., 0., 7.04003215e-01, 5.75688422e-01, 5.75688422e-01, 0.,
          0., 0., 0., 0., 0., 5.75688422e-01, 5.75462639e-01,
          5.75462639e-01, 0., 0., 0., 2.76854374e-02, 3.94642632e-03, 0.,
          5.75462639e-01, 5.39217889e-01, 5.39217889e-01, 0., 0.,
          1.71502918e-01, 5.39217889e-01, 1.21049061e-01, 0.,
          2.79787928e-01, 5.31600356e-01, 5.31600356e-01, 3.65794227e-02,
          0., 1.51212318e-02, 5.31600356e-01, 3.80775988e-01,
          1.83668975e-02, 0., 4.49472994e-01, 4.49472994e-01,
          3.87365192e-01, 0., 1.41344190e-01, 4.49472994e-01,
          4.49472994e-01, 1.31820336e-01, 0., 6.41497225e-02,
          1.28791124e-01, 6.59509674e-02, 0., 3.11054140e-02,
          6.31862462e-01, 6.31862462e-01, 4.11304981e-01, 0., 0., 0., 0.,
          0., 0., 6.37260973e-01, 6.37260973e-01, 4.25951272e-01, 0., 0.,
          0., 0., 0., 0., 0., 0., 0., 0., 0., 0., 0., 0., 0., 0., 0., 0.,
          0., 0., 0., 0., 0., 0., 0., 0., 0., 0., 0., 0., 0., 0., 0., 0.,
          0., 0., 0., 0., 3.09228033e-01, 6.69958830e-01, 6.69958830e-01,
          0., 0., 0., 0., 0., 0., 8.14594924e-02, 6.99403822e-01,
          6.99403822e-01, 0., 0., 3.40663195e-02, 7.39945695e-02,
          3.76218036e-02, 0., 1.20679997e-02, 3.37136060e-01,
          5.40810049e-01, 3.36434804e-02, 0., 4.72707599e-02,
          5.40810049e-01, 5.40810049e-01, 1.53708473e-01, 9.43882391e-03,
          2.70164549e-01, 4.86999512e-01, 4.32349473e-01, 0., 0.,
          4.86999512e-01, 4.86999512e-01, 4.03318524e-01, 0.,
          2.26418197e-01, 4.42055792e-01, 4.42055792e-01, 0., 0.,
          4.42055792e-01, 4.42055792e-01, 4.45812911e-01, 0.,
          6.31970912e-02, 4.43346769e-01, 4.45812911e-01, 0., 0.,
          4.45812911e-01, 4.45812911e-01, 6.11485720e-01, 0.,
          1.36703849e-02, 9.59018990e-02, 4.07309651e-01, 0., 0.,
          2.66044497e-01, 6.11485720e-01, 6.25860810e-01, 2.07160145e-01,
          0., 0., 3.99922311e-01, 8.57047588e-02, 1.22168027e-02, 0.,
          6.25860810e-01, 4.72862482e-01, 4.72862482e-01, 0., 0.,
          4.72862482e-01, 3.14439476e-01, 4.48218398e-02, 0.,
          4.72862482e-01, 4.39312518e-01, 4.39312518e-01, 0., 0.,
          4.39312518e-01, 4.39312518e-01, 1.75026655e-01, 0.,
          4.39312518e-01, 4.66253132e-01, 4.66253132e-01, 0., 0.,
          4.66253132e-01, 4.66253132e-01, 2.55449682e-01, 0.,
          2.46008739e-01, 5.31178653e-01, 5.31178653e-01, 0., 0.,
          2.91650504e-01, 5.31178653e-01, 2.43349358e-01, 1.21606030e-02,
          6.17751479e-02, 1.63522318e-01, 2.72260010e-01, 0., 0.,
          5.26445091e-01, 5.26445091e-01, 5.26445091e-01, 2.49888137e-01,
          0., 0., 0., 0., 0., 5.42669475e-01, 5.42669475e-01,
          5.42669475e-01, 3.33332151e-01, 0., 0., 0., 0., 0., 0., 0., 0.,
          0., 0., 0., 0., 0., 0., 0., 0., 0., 0., 0., 0., 0., 0., 0., 0.,
          0., 0., 0., 0., 0., 0., 0., 0., 0., 0., 0., 0., 0., 0., 0., 0.,
          0., 0., 0., 0., 0., 0., 0., 0., 0., 0., 0., 0., 0., 0., 0., 0.,
          0., 4.98439610e-01, 8.61949563e-01, 0., 0., 0., 0., 0., 0., 0.,
          5.62312961e-01, 8.05706024e-01, 5.98782413e-02, 0., 0.,
          1.30054563e-01, 7.81123042e-02, 3.06777269e-01, 0.,
          2.62550980e-01, 4.56179231e-01, 4.56179231e-01, 0., 0.,
          4.56179231e-01, 4.56179231e-01, 4.43404049e-01, 0.,
          1.11960642e-01, 4.43404049e-01, 4.43404049e-01, 0., 0.,
          4.43404049e-01, 4.43404049e-01, 4.43634808e-01, 0.,
          1.07281439e-01, 4.43634808e-01, 4.43634808e-01, 0., 0.,
          4.43634808e-01, 4.43634808e-01, 5.42266071e-01, 0.,
          4.68121879e-02, 3.28401715e-01, 5.42266071e-01, 0., 0.,
          4.88708317e-02, 5.42266071e-01, 5.48976958e-01, 7.88845792e-02,
          0., 0., 5.48976958e-01, 2.87213981e-01, 4.09409776e-02, 0.,
          5.48976958e-01, 4.46660370e-01, 4.34337318e-01, 0., 0.,
          4.46660370e-01, 4.46660370e-01, 9.41671431e-02, 0.,
          4.46660370e-01, 4.44082797e-01, 4.44082797e-01, 0., 0.,
          4.44082797e-01, 4.44082797e-01, 9.75523517e-02, 0.,
          4.44082797e-01, 4.49385554e-01, 4.49385554e-01, 0., 0.,
          4.49385554e-01, 4.49385554e-01, 2.14461938e-01, 0.,
          3.76467586e-01, 1.53604537e-01, 1.87301576e-01, 0., 0.,
          5.29479027e-01, 6.65361822e-01, 4.58188653e-01, 0.,
          4.11092006e-02, 0., 0., 0., 0., 5.97057462e-01, 5.97057462e-01,
          5.27810812e-01, 4.99888211e-02, 0., 0., 0., 0., 0., 0., 0.,
          9.35707569e-01, 3.11902493e-01, 0., 0., 0., 0., 0., 0., 0., 0.,
          0., 0., 0., 0., 0., 0., 0., 0., 0., 0., 0., 0., 0., 0., 0., 0.,
          0., 0., 0., 0., 0., 0., 0., 0., 0., 0., 0., 0., 0., 0., 0., 0.,
          0., 0., 0., 0., 0., 0., 0., 0., 0., 0., 0., 0., 0., 0., 0., 0.,
          0., 0., 0., 0., 0., 0., 0., 0., 0., 0., 3.46255213e-01,
          6.60874248e-01, 6.60874248e-01, 0., 0., 0., 0., 7.11303251e-03,
          0., 3.62075984e-01, 6.56598985e-01, 6.56598985e-01, 0., 0., 0.,
          7.11303251e-03, 1.17433585e-01, 0., 2.89473742e-01,
          6.47948027e-01, 6.47948027e-01, 0., 0., 1.32302642e-01,
          1.96896121e-01, 4.00915176e-01, 0., 8.49152580e-02,
          5.05894601e-01, 5.05894601e-01, 0., 0., 2.43342742e-01,
          5.05894601e-01, 4.60117400e-01, 5.83977178e-02, 3.73270422e-01,
          4.60117400e-01, 4.60117400e-01, 0., 5.28970845e-02,
          5.50700501e-02, 4.60117400e-01, 4.39402729e-01, 7.73758143e-02,
          3.68104093e-02, 3.49889137e-02, 4.39402729e-01, 4.39402729e-01,
          4.39402729e-01, 1.47209957e-01, 4.39402729e-01, 5.12735426e-01,
          2.07549602e-01, 0., 0., 5.12735426e-01, 5.12735426e-01,
          8.48482028e-02, 2.92616896e-03, 3.94843996e-01, 2.65150964e-01,
          1.33043289e-01, 0., 0., 6.38271570e-01, 6.38271570e-01,
          2.37750620e-01, 0., 1.85243726e-01, 2.88084913e-02,
          1.59067735e-02, 0., 0., 6.61016166e-01, 6.61016166e-01,
          3.43602121e-01, 0., 1.92547068e-02, 0., 0., 0., 0.,
          6.55373633e-01, 6.55373633e-01, 3.66644114e-01, 0., 0., 0., 0.,
          0., 0., 0., 0., 0., 0., 0., 0., 0., 0., 0., 0., 0., 0., 0., 0.,
          0., 0., 0., 0., 0., 0., 0., 0., 0., 0., 0., 0., 0., 0., 0., 0.,
          0., 0., 0., 0., 0., 0., 0., 0., 0., 0., 0., 0., 0., 0., 0., 0.,
          0., 0., 0., 0., 0., 0., 0., 0., 0., 0., 0., 0., 0., 0., 0., 0.,
          0., 0., 0., 0., 0., 0., 0., 0., 0., 0., 0., 0., 0., 0., 0., 0.,
          0., 0., 0., 0., 0., 0., 0., 0., 0., 0., 0., 0., 0., 0., 0., 0.,
          0., 0., 0., 1.33601874e-01, 6.98276460e-01, 6.98276460e-01, 0.,
          0., 0., 0., 0., 1.79705441e-01, 5.66289425e-01, 5.66289425e-01,
          5.66289425e-01, 0., 0., 0., 0., 3.96756947e-01, 5.05002141e-01,
          5.05002141e-01, 5.05002141e-01, 9.26443040e-02, 0.,
          2.39767119e-01, 7.99223706e-02, 0., 3.17247063e-02,
          1.20243080e-01, 2.08240137e-01, 4.19030115e-02, 2.86335021e-01,
          3.36433798e-01, 6.07002914e-01, 6.07002914e-01, 3.56945656e-02,
          0., 0., 0., 0., 5.62824428e-01, 5.62824428e-01, 5.62824428e-01,
          2.09404647e-01, 1.46800373e-02, 0., 0., 0., 0., 6.98332310e-01,
          6.98332310e-01, 1.33014202e-01, 0., 0., 0., 0., 0., 0.,
          9.88951027e-01, 0., 0., 0., 0., 0., 0., 0., 0., 0., 0., 0., 0.,
          0., 0., 0., 0., 0., 0., 0., 0., 0., 0., 0., 0., 0., 0., 0., 0.,
          0., 0., 0., 0., 0., 0., 0., 0., 0., 0., 0., 0., 0., 0., 0., 0.,
          0., 0., 0., 0., 0., 0., 0., 0., 0., 0., 0., 0., 0., 0., 0., 0.,
          0., 0., 0., 0., 0., 0., 0., 0., 0., 0., 0., 0., 0., 0., 0., 0.,
          0., 0., 0., 0., 0., 0., 0., 0., 0., 0., 0., 0., 0., 0., 0., 0.,
          0., 0., 0., 0., 0., 0., 0., 0., 0., 0., 0., 0., 0., 0., 0., 0.,
          0., 0., 0., 0., 0., 0., 0., 0., 0., 0., 0., 0., 0.,
          2.24007174e-01, 6.86646283e-01, 6.86646283e-01, 0., 0., 0., 0.,
          0., 0., 1.91879064e-01, 6.70838237e-01, 6.70838237e-01, 0., 0.,
          0., 2.25374669e-01, 7.51248896e-02, 0., 4.87921247e-03,
          4.84115966e-02, 1.20863535e-01, 0., 0., 4.46666986e-01,
          6.04841352e-01, 6.04841352e-01, 2.14027599e-01, 0., 0., 0., 0.,
          0., 5.02022445e-01, 5.84922075e-01, 5.84922075e-01,
          2.40552038e-01, 0., 0., 0., 0., 0., 0., 0., 0., 0., 0., 0., 0.,
          0., 0., 0., 0., 0., 0., 0., 0., 0., 0., 0., 0., 0., 0., 0., 0.,
          0., 0., 0., 0., 0., 0., 0., 0., 0., 0., 0., 0., 0., 0., 0., 0.,
          0., 0., 0., 0., 0., 0., 0., 0., 0., 0., 0., 0., 0., 0., 0., 0.,
          0., 0., 0., 0., 0., 0., 0., 0., 0., 0., 0., 0., 0., 0., 0., 0.,
          0., 0., 0., 0., 0., 0., 0., 0., 0., 0., 0., 0., 0., 0., 0., 0.,
          0., 0., 0., 0., 0., 0., 0., 0., 0., 0., 0., 0., 0., 0., 0., 0.,
          0., 0., 0., 0., 0., 0., 0., 0., 0., 0., 0., 0., 0., 0., 0., 0.,
          0., 0., 0., 0., 0., 0., 0., 0., 0., 0., 0., 2.07347110e-01,
          6.89248443e-01, 6.89248443e-01, 0., 0., 0., 0., 0., 0.,
          2.26665914e-01, 6.50405049e-01, 6.50405049e-01, 0., 0., 0.,
          2.94054419e-01, 9.80181471e-02, 0., 0., 2.12841257e-02,
          6.38523772e-02, 0., 0., 1.06522135e-01, 6.98979795e-01,
          6.98979795e-01, 0., 0., 0., 0., 0., 0., 1.67497799e-01,
          6.94625914e-01, 6.94625914e-01, 0., 0., 0., 0., 0., 0., 0., 0.,
          0., 0., 0., 0., 0., 0., 0., 0., 0., 0., 0., 0., 0., 0., 0., 0.,
          0., 0., 0., 0., 0., 0., 0., 0., 0., 0., 0., 0., 0., 0., 0., 0.,
          0., 0., 0., 0., 0., 0., 0., 0., 0., 0., 0., 0., 0., 0., 0., 0.,
          0., 0., 0., 0., 0., 0., 0., 0., 0., 0., 0., 0., 0., 0., 0., 0.,
          0. ]
      - [ 0., 0., 0., 0., 0., 0., 0., 0., 0., 0., 0., 0., 0., 0., 0., 0.,
          0., 0., 0., 0., 0., 0., 0., 0., 0., 0., 0., 0., 0., 0., 0., 0.,
          0., 0., 0., 0., 0., 0., 0., 0., 0., 0., 0., 0., 0., 0., 0., 0.,
          0., 0., 0., 0., 0., 0., 0., 0., 0., 0., 0., 0., 0., 0., 0., 0.,
          0., 0., 0., 0., 0., 0., 0., 0., 0., 0., 0., 0., 0., 0., 0., 0.,
          0., 0., 0., 0., 0., 0., 0., 0., 0., 0., 0., 0., 0., 0., 0., 0.,
          0., 0., 0., 0., 0., 0., 0., 0., 0., 0., 0., 0., 0., 0., 0., 0.,
          0., 0., 0., 0., 0., 0., 0., 0., 0., 0., 0., 0., 0., 0., 0., 0.,
          0., 0., 0., 0., 0., 0., 0., 0., 0., 0., 0., 0., 0., 0., 0., 0.,
          0., 0., 0., 0., 0., 0., 0., 0., 0., 0., 0., 0., 0., 0., 0., 0.,
          0., 0., 0., 0., 0., 0., 0., 0., 0., 0., 0., 0., 0., 0., 0., 0.,
          0., 0., 0., 0., 0., 0., 0., 0., 0., 0., 0., 0., 0., 0., 0., 0.,
          0., 0., 0., 0., 0., 0., 0., 0., 0., 0., 0., 0., 0., 0., 0., 0.,
          0., 0., 0., 0., 0., 0., 0., 0., 0., 0., 0., 0., 0., 0., 0., 0.,
          0., 0., 0., 0., 0., 0., 0., 0., 0., 0., 0., 0., 0., 0., 0., 0.,
          0., 0., 0., 7.04615593e-01, 0., 0., 0., 0., 0., 0., 0.,
          7.04615593e-01, 7.04615593e-01, 0., 0., 0., 0., 0., 0., 0.,
          7.04615593e-01, 7.04615593e-01, 0., 0., 0., 0., 0., 0., 0.,
          7.04615593e-01, 7.04615593e-01, 0., 0., 0., 0., 0., 0., 0.,
          7.04615593e-01, 7.01493204e-01, 0., 0., 0., 0., 0., 0., 0.,
          7.01493204e-01, 0., 0., 0., 0., 0., 0., 0., 0., 0., 0., 0., 0.,
          0., 0., 0., 0., 0., 0., 0., 0., 0., 0., 0., 0., 0., 0., 0., 0.,
          0., 0., 0., 0., 0., 0., 0., 0., 0., 0., 0., 0., 0., 0., 0., 0.,
          0., 0., 0., 0., 0., 0., 0., 0., 0., 0., 0., 0., 0., 0., 0., 0.,
          0., 0., 0., 0., 0., 0., 0., 0., 0., 0., 0., 0., 0., 0., 0., 0.,
          0., 0., 0., 0., 0., 0., 0., 0., 0., 0., 0., 0., 0., 0., 0., 0.,
          0., 0., 0., 0., 0., 0., 0., 5.78512073e-01, 5.69974303e-01, 0.,
          0., 0., 0., 0., 0., 5.78512073e-01, 5.75688422e-01,
          5.75688422e-01, 0., 0., 0., 0., 0., 0., 5.75688422e-01,
          5.67655504e-01, 5.67655504e-01, 0., 0., 1.56577244e-01,
          5.52703440e-02, 7.87852146e-03, 0., 5.67655504e-01,
          4.83049065e-01, 4.83049065e-01, 0., 0., 4.83049065e-01,
          2.46167853e-01, 3.50900479e-02, 0., 4.83049065e-01,
          5.67155957e-01, 2.45928131e-02, 1.03123430e-02, 7.23442212e-02,
          5.67155957e-01, 1.51420519e-01, 2.15842724e-02, 0.,
          5.67155957e-01, 5.58282971e-01, 0., 3.43894474e-02,
          2.41252407e-01, 5.58282971e-01, 0., 0., 0., 5.58282971e-01,
          4.96120453e-01, 0., 1.44624421e-02, 1.01458415e-01,
          4.96120453e-01, 0., 0., 4.96120453e-01, 4.96120453e-01,
          5.63940704e-01, 0., 8.76599550e-03, 6.14961125e-02,
          1.90846741e-01, 0., 0., 5.63940704e-01, 5.63940704e-01,
          5.75688422e-01, 0., 0., 0., 0., 0., 0., 5.75688422e-01,
          5.75688422e-01, 5.32130837e-01, 0., 0., 0., 0., 0., 0.,
          5.96189499e-01, 5.96189499e-01, 0., 0., 0., 0., 0., 0., 0., 0.,
          0., 0., 0., 0., 0., 0., 0., 0., 0., 0., 0., 0., 0., 0., 0., 0.,
          0., 0., 0., 0., 0., 0., 0., 0., 0., 0., 0., 0., 0., 0., 0., 0.,
          0., 0., 0., 0., 0., 0., 0., 0., 0., 0., 0., 0., 0., 0., 0., 0.,
          0., 0., 0., 0., 0., 0., 0., 0., 0., 0., 0., 0., 0., 0., 0., 0.,
          7.04615593e-01, 7.04615593e-01, 0., 0., 0., 0., 0., 0., 0.,
          6.90243006e-01, 6.90243006e-01, 0., 0., 4.13577929e-02,
          7.59341195e-02, 1.08240442e-02, 0., 1.80679396e-01,
          4.46192801e-01, 4.46192801e-01, 0., 0., 4.29499656e-01,
          4.46192801e-01, 1.21330030e-01, 0., 4.46192801e-01,
          4.43111390e-01, 4.43111390e-01, 0., 0., 4.43111390e-01,
          4.43111390e-01, 1.98730811e-01, 0., 4.13145363e-01,
          4.43657130e-01, 4.43657130e-01, 0., 0., 4.43657130e-01,
          4.43657130e-01, 1.06818415e-01, 0., 4.43657130e-01,
          5.25083363e-01, 2.31221020e-01, 1.86203364e-02, 1.30627319e-01,
          5.25083363e-01, 3.07926297e-01, 4.38934080e-02, 0.,
          5.25083363e-01, 5.19393861e-01, 0., 6.01633005e-02,
          4.22063768e-01, 5.19393861e-01, 5.27609512e-02, 7.52082141e-03,
          3.00839748e-02, 5.19393861e-01, 4.51018810e-01, 0.,
          6.01741374e-02, 4.22139823e-01, 4.51018810e-01, 0., 0.,
          4.51018810e-01, 4.51018810e-01, 4.39048916e-01, 0.,
          1.78310245e-01, 4.39048916e-01, 4.39048916e-01, 0., 0.,
          4.39048916e-01, 4.39048916e-01, 4.42276776e-01, 0.,
          1.32432848e-01, 4.42276776e-01, 4.42276776e-01, 0., 0.,
          4.42276776e-01, 4.42276776e-01, 4.55063730e-01, 0.,
          1.88351348e-02, 1.32134184e-01, 2.63562445e-02, 0., 0.,
          6.19766176e-01, 6.19766176e-01, 1.84209257e-01, 0., 0., 0., 0.,
          0., 0., 6.92514896e-01, 6.92514896e-01, 0., 0., 0., 0., 0., 0.,
          0., 0., 0., 0., 0., 0., 0., 0., 0., 0., 0., 0., 0., 0., 0., 0.,
          0., 0., 0., 0., 0., 0., 0., 0., 0., 0., 0., 0., 0., 0., 0., 0.,
          0., 0., 0., 0., 0., 0., 0., 0., 0., 0., 0., 0., 0., 0., 0., 0.,
          5.75688422e-01, 5.75688422e-01, 5.75688422e-01, 0., 0., 0., 0.,
          0., 0., 6.97938800e-01, 6.97938800e-01, 5.84417321e-02, 0., 0.,
          1.22776292e-01, 1.75011717e-02, 0., 0., 5.54060876e-01,
          5.54060876e-01, 2.35067401e-02, 0., 3.55212986e-02,
          5.54060876e-01, 2.67179847e-01, 0., 1.78130046e-02,
          4.71408218e-01, 4.71408218e-01, 1.32650929e-02, 0.,
          4.71408218e-01, 4.71408218e-01, 2.56868839e-01, 0.,
          2.00576842e-01, 4.41790253e-01, 4.41790253e-01, 0., 0.,
          4.41790253e-01, 4.41790253e-01, 1.40334830e-01, 0.,
          4.41790253e-01, 4.75005686e-01, 3.60759914e-01, 0., 0.,
          4.75005686e-01, 4.75005686e-01, 1.98259711e-01, 0.,
          3.85888219e-01, 3.02544534e-01, 6.62780330e-02, 9.99826472e-03,
          7.01408461e-02, 6.37884557e-01, 6.37884557e-01, 9.93051380e-02,
          0., 2.62737215e-01, 2.61920422e-01, 0., 1.22059882e-01,
          5.57936549e-01, 5.57936549e-01, 4.60394830e-01, 6.56270832e-02,
          1.05433799e-02, 2.68252879e-01, 3.07592213e-01, 0.,
          1.41974449e-01, 5.65175951e-01, 5.65175951e-01, 0., 0.,
          2.18944132e-01, 4.39092666e-01, 4.38913018e-01, 0.,
          1.79979399e-01, 4.38913018e-01, 4.38913018e-01, 0., 0.,
          4.38913018e-01, 4.38913018e-01, 3.52432847e-01, 0.,
          2.11532429e-01, 4.54561532e-01, 4.54561532e-01, 0., 0.,
          4.54561532e-01, 4.54561532e-01, 1.39208674e-01, 0.,
          2.52769023e-01, 4.93109524e-01, 4.27004576e-01, 0., 0.,
          4.93109524e-01, 4.93109524e-01, 3.73083493e-03, 0.,
          5.09169400e-02, 3.57197791e-01, 0., 0., 0., 6.56979561e-01,
          6.56979561e-01, 0., 0., 0., 0., 0., 0., 0., 7.04615593e-01,
          7.04615593e-01, 0., 0., 0., 0., 0., 0., 0., 0., 0., 0., 0., 0.,
          0., 0., 0., 0., 0., 0., 0., 0., 0., 0., 0., 0., 0., 0., 0., 0.,
          0., 0., 0., 0., 0., 0., 0., 0., 0., 0., 0., 0., 0., 0., 0., 0.,
          0., 5.75688422e-01, 5.75688422e-01, 5.75688422e-01, 0., 0., 0.,
          0., 0., 0., 4.41728085e-01, 4.41728085e-01, 4.41728085e-01, 0.,
          0., 4.41728085e-01, 4.41728085e-01, 1.41312093e-01, 0.,
          4.75628465e-01, 4.75628465e-01, 2.88325995e-01, 0., 0.,
          4.75628465e-01, 4.75628465e-01, 8.45458508e-02, 8.93548131e-03,
          5.19511044e-01, 5.19511044e-01, 2.60273308e-01, 0., 0.,
          5.19511044e-01, 2.95443028e-01, 0., 1.73515543e-01,
          1.06207997e-01, 1.26709074e-01, 0., 0., 6.25626504e-01,
          6.25626504e-01, 4.27428335e-01, 0., 3.01051531e-02, 0., 0., 0.,
          0., 6.76795125e-01, 6.76795125e-01, 2.77741373e-01, 0., 0., 0.,
          0., 0., 0., 7.46512592e-01, 6.53145909e-01, 9.31028202e-02, 0.,
          0., 0., 0., 0., 0., 9.95024860e-01, 0., 0., 0., 0., 0., 0.,
          2.03754038e-01, 6.89782023e-01, 6.89782023e-01, 0., 0., 0., 0.,
          1.45058408e-02, 0., 3.45124185e-01, 6.60850286e-01,
          6.60850286e-01, 0., 0., 1.23892874e-02, 2.19469909e-02,
          8.05796161e-02, 0., 3.77866447e-01, 5.59495628e-01,
          5.27228713e-01, 0., 0., 3.92514497e-01, 3.16328496e-01,
          1.96236651e-02, 0., 2.72941738e-01, 5.52820385e-01,
          5.25938980e-02, 0., 0., 5.52820385e-01, 5.52820385e-01, 0.,
          5.49882054e-02, 4.38910276e-01, 5.16018212e-01, 0., 0.,
          1.88743845e-02, 5.16018212e-01, 5.16018212e-01, 0.,
          1.70444977e-02, 7.47615099e-02, 1.65757701e-01, 0., 0.,
          5.65977931e-01, 5.65977931e-01, 5.65977931e-01, 0., 0., 0., 0.,
          0., 0., 5.75688422e-01, 5.75688422e-01, 5.75688422e-01, 0., 0.,
          0., 0., 0., 0., 0., 0., 0., 0., 0., 0., 0., 0., 0., 0., 0., 0.,
          0., 0., 0., 0., 0., 0., 0., 0., 0., 0., 6.19017363e-01,
          7.80402958e-01, 0., 0., 0., 0., 0., 0., 5.67924678e-01,
          5.67924678e-01, 5.67924678e-01, 0., 0., 8.85388702e-02,
          1.31541058e-01, 3.96400876e-02, 0., 3.21867347e-01,
          4.44426596e-01, 4.44426596e-01, 0., 0., 4.44426596e-01,
          4.44426596e-01, 3.19221258e-01, 0., 4.37235504e-01,
          4.37235504e-01, 4.37235504e-01, 0., 0., 4.37235504e-01,
          4.37235504e-01, 1.99394390e-01, 0., 8.19818079e-02,
          1.52712762e-01, 4.86461706e-02, 0., 0., 6.82740331e-01,
          6.82740331e-01, 1.68840095e-01, 0., 0., 0., 0., 0., 0.,
          8.47728431e-01, 5.22395611e-01, 0., 0., 0., 0., 0., 0., 0., 0.,
          0., 0., 0., 0., 0., 0., 0., 0., 0., 0., 0., 0., 0., 0., 0., 0.,
          0., 0., 0., 0., 0., 0., 0., 0., 0., 0., 0., 0., 0., 0., 0., 0.,
          0., 0., 0., 0., 0., 0., 0., 0., 0., 5.58863223e-01,
          8.24285150e-01, 0., 0., 0., 0., 0., 0., 8.86580497e-02,
          6.21856570e-01, 6.21856570e-01, 0., 0., 0., 3.95196378e-01,
          2.37359628e-01, 0., 1.52890414e-01, 4.40957993e-01,
          4.40957993e-01, 0., 0., 4.40957993e-01, 4.40957993e-01,
          4.40957993e-01, 0., 1.69498697e-01, 4.39744800e-01,
          4.39744800e-01, 0., 0., 4.39744800e-01, 4.39744800e-01,
          4.39744800e-01, 0., 0., 0., 0., 0., 0., 5.75688422e-01,
          5.75688422e-01, 5.75688422e-01, 0., 0., 0., 0., 0., 0., 0., 0.,
          0., 6.53189778e-01, 7.11509064e-02, 0., 0., 0., 0., 0.,
          3.67563099e-01, 6.53189778e-01, 6.42897010e-01, 0., 0., 0., 0.,
          0., 0., 4.08593237e-01, 6.42897010e-01, 4.98753130e-01,
          4.98753130e-01, 4.98753130e-01, 0., 0., 0., 0., 0.,
          4.98753130e-01, 2.98745364e-01, 5.03885865e-01, 5.03885865e-01,
          0., 0., 3.25269520e-01, 5.03885865e-01, 1.95488602e-01, 0.,
          3.06983590e-01, 4.36778843e-01, 4.36778843e-01, 0., 0.,
          4.36778843e-01, 4.36778843e-01, 3.71880352e-01, 0.,
          2.12558240e-01, 4.40991640e-01, 4.40991640e-01, 0., 0.,
          4.40991640e-01, 4.40991640e-01, 4.15354609e-01, 0., 0., 0., 0.,
          0., 0., 5.75688422e-01, 5.75688422e-01, 5.75688422e-01, 0., 0.,
          0., 0., 0., 0., 0., 0., 0., 0., 0., 0., 0., 0., 0., 0., 0., 0.,
          0., 0., 0., 0., 0., 0., 0., 0., 0., 0., 0., 0., 0., 0., 0., 0.,
          0., 0., 0., 0., 0., 0., 0., 0., 0., 0., 0., 0., 0., 0., 0., 0.,
          0., 0., 0., 0., 0., 0., 0., 0., 0., 0., 0., 0., 0., 0., 0.,
          4.38702524e-01, 6.32937908e-01, 6.32937908e-01, 0., 0., 0., 0.,
          0., 0., 3.60936344e-01, 4.36748654e-01, 4.36748654e-01, 0., 0.,
          4.36748654e-01, 4.36748654e-01, 3.19944948e-01, 0.,
          3.42984408e-01, 4.25384194e-01, 4.25384194e-01, 0., 0.,
          4.25384194e-01, 4.25384194e-01, 3.92817438e-01, 0.,
          3.67480963e-02, 1.17621206e-01, 5.17513938e-02, 0., 0.,
          5.70508420e-01, 5.70508420e-01, 5.70508420e-01, 0., 0., 0., 0.,
          0., 0., 9.41842496e-01, 3.13947499e-01, 0., 5.72267234e-01,
          1.36006922e-01, 1.88544214e-01, 1.80815347e-02, 3.72454345e-01,
          0., 0., 3.82374376e-01, 5.72267234e-01, 6.31464660e-01, 0., 0.,
          0., 3.11062753e-01, 0., 0., 3.15341204e-01, 6.31464660e-01,
          4.74921912e-01, 4.74921912e-01, 3.04572489e-02, 0.,
          3.03521872e-01, 0., 0., 4.74921912e-01, 4.74921912e-01,
          4.38285410e-01, 4.38285410e-01, 4.38285410e-01, 0.,
          8.35630447e-02, 4.41259593e-02, 4.38285410e-01, 4.38285410e-01,
          1.61930636e-01, 1.36756659e-01, 5.06981254e-01, 5.06981254e-01,
          0., 0., 6.51789233e-02, 5.06981254e-01, 4.48214263e-01, 0.,
          4.06828411e-02, 2.01993734e-01, 4.02773917e-01, 0., 0.,
          3.08373719e-01, 5.89210868e-01, 5.89210868e-01, 0., 0., 0., 0.,
          0., 0., 5.55275202e-01, 5.85586131e-01, 5.85586131e-01, 0., 0.,
          0., 0., 0., 0., 0., 0., 0., 0., 0., 0., 0., 0., 0., 0., 0., 0.,
          0., 0., 0., 0., 0., 0., 0., 0., 0., 0., 0., 0., 0., 0., 0., 0.,
          0., 0., 0., 0., 0., 0., 0., 0., 0., 0., 0., 0., 0., 0., 0., 0.,
          0., 0., 0., 0., 0., 0., 0., 0., 0., 0., 0., 0., 0., 0., 0.,
          5.51847517e-01, 5.87197125e-01, 5.87197125e-01, 0., 0., 0., 0.,
          0., 0., 4.77315485e-01, 4.77315485e-01, 4.77315485e-01, 0., 0.,
          4.77315485e-01, 2.83961147e-01, 5.72555587e-02, 0.,
          4.30889785e-01, 4.44313526e-01, 4.44313526e-01, 0., 0.,
          4.44313526e-01, 4.44313526e-01, 1.42259687e-01, 2.43471324e-01,
          1.20522991e-01, 3.85579348e-01, 1.68439597e-01, 0., 0.,
          4.98055667e-01, 4.98055667e-01, 4.98055667e-01, 6.79537237e-01,
          0., 0., 0., 0., 0., 1.16040811e-01, 2.37084419e-01,
          6.79537237e-01, 4.47899476e-02, 3.15757580e-02, 1.24996342e-01,
          2.12346658e-01, 9.61604118e-01, 0., 0., 0., 4.47899476e-02,
          7.72394091e-02, 0., 7.14346468e-02, 5.01135707e-01,
          7.20428407e-01, 4.48384702e-01, 6.39150888e-02, 4.88740951e-03,
          8.01748410e-02, 1.65205345e-01, 9.06401500e-02, 2.29481444e-01,
          3.26842070e-01, 8.63404453e-01, 1.11374252e-01, 1.58758666e-02,
          6.29701987e-02, 1.85202092e-01, 4.35250476e-02, 3.16098005e-01,
          4.21933234e-01, 4.21933234e-01, 4.21933234e-01, 0.,
          4.21933234e-01, 4.21933234e-01, 6.19237386e-02, 0.,
          4.80344623e-01, 4.80344623e-01, 2.64415860e-01, 0., 0.,
          4.80344623e-01, 4.80344623e-01, 4.86064628e-02, 0.,
          1.37272194e-01, 4.24156785e-01, 8.65698680e-02, 0., 0.,
          6.22986376e-01, 6.22986376e-01, 1.06343545e-01, 0., 0., 0., 0.,
          0., 0., 6.92523479e-01, 6.92523479e-01, 1.84144512e-01, 0., 0.,
          0., 0., 0., 0., 0., 0., 0., 0., 0., 0., 0., 0., 0., 0., 0., 0.,
          0., 0., 0., 0., 0., 0., 0., 0., 0., 0., 0., 0., 0., 0., 0., 0.,
          0., 0., 0., 0., 0., 0., 0., 0., 0., 0., 0., 0., 0., 0., 0., 0.,
          0., 0., 0., 0., 0., 0., 0., 0., 0., 0., 0., 0., 0., 0., 0., 0.,
          0., 0., 0., 0., 0., 0., 0., 6.29733503e-01, 6.29733503e-01, 0.,
          0., 1.16589427e-01, 3.72566551e-01, 2.12198570e-01,
          5.61869293e-02, 1.74286906e-02, 4.42160428e-01, 4.42160428e-01,
          1.45091653e-01, 0., 3.94941688e-01, 4.42160428e-01,
          4.42160428e-01, 1.90330803e-01, 3.57267052e-01, 3.02562028e-01,
          3.57267052e-01, 1.06811136e-01, 3.57267052e-01, 3.57267052e-01,
          3.57267052e-01, 3.57267052e-01, 3.57267052e-01, 4.94394124e-01,
          0., 8.04428309e-02, 4.94394124e-01, 4.94394124e-01,
          9.21732485e-02, 1.89547371e-02, 4.50972915e-02, 4.94394124e-01,
          0., 0., 2.44938452e-02, 1.71831742e-01, 9.79846597e-01, 0., 0.,
          0., 0., 0., 0., 7.87727460e-02, 5.52614689e-01, 6.57574058e-01,
          4.94444907e-01, 7.04807490e-02, 0., 0., 0., 5.03101766e-01,
          5.03101766e-01, 4.81562138e-01, 5.03101766e-01, 6.05352335e-02,
          8.62900633e-03, 0., 0., 0., 4.61621284e-01, 4.61621284e-01,
          4.61621284e-01, 1.60618071e-02, 0., 4.61621284e-01,
          3.60973656e-01, 1.11590385e-01, 0., 3.99552792e-01,
          4.35034007e-01, 4.35034007e-01, 0., 0., 4.35034007e-01,
          4.35034007e-01, 2.81057954e-01, 0., 2.00155184e-01,
          4.56788033e-01, 3.47496808e-01, 0., 0., 4.56788033e-01,
          4.56788033e-01, 4.56788033e-01, 0., 0., 0., 0., 0., 0.,
          5.75688422e-01, 5.75688422e-01, 5.75688422e-01, 0., 0., 0., 0.,
          0., 0., 0., 0., 0., 0., 0., 0., 0., 0., 0., 0., 0., 0., 0., 0.,
          0., 0., 0., 0., 0., 0., 0., 0., 0., 0., 0., 0., 0., 0., 0., 0.,
          0., 0., 0., 0., 0., 0., 0., 0., 0., 0., 0., 0., 0., 0., 0., 0.,
          0., 0., 0., 0., 0., 0., 0., 0., 0., 0., 0., 2.49882802e-01,
          6.82183444e-01, 6.82183444e-01, 0., 0., 0., 0., 0., 0.,
          3.03617269e-01, 5.30881047e-01, 5.30881047e-01, 0., 0.,
          1.17589198e-01, 5.30881047e-01, 2.07806557e-01, 0.,
          2.80936241e-01, 4.58004385e-01, 4.58004385e-01, 0., 0.,
          2.78259099e-01, 4.58004385e-01, 4.58004385e-01, 0.,
          7.45267496e-02, 2.64732480e-01, 4.25731331e-01, 2.65793260e-02,
          2.45933026e-01, 4.75107104e-01, 4.75107104e-01, 4.75107104e-01,
          0., 0., 0., 1.20601267e-01, 6.68268979e-01, 6.68268979e-01,
          1.76442340e-01, 2.23828852e-01, 6.62259534e-02, 0., 0., 0., 0.,
          0., 0., 0., 0., 0., 0., 0., 0., 0., 0., 0., 0., 0., 0., 0., 0.,
          6.67574763e-01, 7.39568830e-01, 0., 0., 0., 0., 0., 0., 0.,
          5.59176981e-01, 5.59176981e-01, 5.59176981e-01, 0., 0.,
          1.93791449e-01, 1.31233752e-01, 4.00227308e-02, 0.,
          2.36236572e-01, 4.33557719e-01, 4.33557719e-01, 0., 0.,
          4.33557719e-01, 4.33557719e-01, 4.33557719e-01, 0.,
          2.82862157e-01, 4.30716187e-01, 4.30716187e-01, 0., 0.,
          4.30716187e-01, 4.30716187e-01, 4.16678339e-01, 0.,
          8.56360327e-03, 3.50192972e-02, 6.54421970e-02, 0., 0.,
          5.74074686e-01, 5.74074686e-01, 5.74074686e-01, 0., 0., 0., 0.,
          0., 0., 6.86033070e-01, 6.75968230e-01, 2.56080300e-01, 0., 0.,
          0., 0., 0., 0., 0., 0., 0., 0., 0., 0., 0., 0., 0., 0., 0., 0.,
          0., 0., 0., 0., 0., 0., 0., 0., 0., 0., 0., 0., 0., 0., 0., 0.,
          0., 0., 0., 0., 0., 0., 0., 0., 0., 0., 0., 0., 0., 0., 0., 0.,
          0., 0., 0., 0., 5.75688422e-01, 5.75688422e-01, 5.75688422e-01,
          0., 0., 0., 0., 0., 0., 4.36551481e-01, 4.36551481e-01,
          4.36551481e-01, 0., 0., 4.36551481e-01, 4.36551481e-01,
          2.06768423e-01, 0., 4.18316424e-01, 4.21931237e-01,
          4.21931237e-01, 0., 0., 4.21931237e-01, 4.21931237e-01,
          3.29685599e-01, 0., 3.62502299e-02, 1.13157772e-01,
          1.58406466e-01, 0., 0., 5.64255893e-01, 5.64255893e-01,
          5.64255893e-01, 0., 0., 0., 0., 0., 0., 0., 7.43741333e-01,
          6.62891626e-01, 0., 0., 0., 0., 0., 0., 0., 0., 0., 0., 0., 0.,
          0., 0., 0., 0., 0., 0., 0., 0., 0., 0., 0., 0., 0., 0., 0., 0.,
          0., 5.11600852e-01, 6.05035961e-01, 6.05035961e-01, 0., 0.,
          8.81460868e-03, 2.93820282e-03, 0., 0., 1.99924588e-01,
          4.37187165e-01, 4.37187165e-01, 0., 0., 4.37187165e-01,
          4.37187165e-01, 4.37187165e-01, 0., 1.67623132e-01,
          4.52050418e-01, 4.52050418e-01, 0., 0., 3.87283921e-01,
          4.52050418e-01, 4.52050418e-01, 0., 4.84140143e-02,
          2.78721541e-01, 4.98085707e-01, 0., 0., 4.13192004e-01,
          4.98085707e-01, 4.98085707e-01, 9.61630866e-02, 0.,
          3.21908039e-03, 2.25828253e-02, 0., 0., 5.52302450e-02,
          7.00069129e-01, 7.00069129e-01, 5.79460204e-01, 0., 0., 0., 0.,
          0., 0., 4.21735287e-01, 6.92425549e-01, 0., 0., 0., 0., 0., 0.,
          0., 0., 0., 0., 0., 0., 0., 0., 0., 0., 0., 0., 0., 0., 0., 0.,
          0., 0., 0., 0., 0., 0., 0., 0., 0., 0., 0., 0., 0., 0.,
          7.04615593e-01, 7.04615593e-01, 0., 0., 0., 0., 0., 0., 0.,
          5.66187024e-01, 5.66187024e-01, 3.40771019e-01, 0., 0.,
          4.72559005e-01, 1.16226427e-01, 1.62884668e-02, 0.,
          4.41029757e-01, 4.41029757e-01, 4.41029757e-01, 0., 0.,
          4.41029757e-01, 4.41029757e-01, 1.51850611e-01, 0.,
          3.93029422e-01, 4.38806772e-01, 4.38806772e-01, 0., 0.,
          4.38806772e-01, 4.38806772e-01, 2.66343981e-01, 0., 0.,
          5.48689533e-03, 1.64606869e-02, 0., 0., 5.75601518e-01,
          5.75601518e-01, 5.75601518e-01, 0., 0., 0., 0., 0., 0., 0., 0.,
          0., 0., 0., 0., 0., 0., 0., 0., 0., 0., 0., 0., 0., 0., 0., 0.,
          0., 0., 0., 0., 0., 0., 0., 0., 0., 0., 0., 0., 0., 0.,
          3.68147016e-01, 6.54953778e-01, 6.54953778e-01, 0., 0., 0., 0.,
          0., 0., 1.47163406e-01, 6.85717821e-01, 6.85717821e-01, 0., 0.,
          5.75198904e-02, 1.47691876e-01, 7.71897808e-02, 0.,
          7.82932714e-02, 4.44460779e-01, 5.09569943e-01, 4.25851904e-02,
          0., 1.02164760e-01, 5.09569943e-01, 5.09569943e-01,
          1.24930358e-02, 4.48784092e-03, 3.40708137e-01, 5.39858758e-01,
          6.33097067e-02, 0., 0., 5.39858758e-01, 5.39858758e-01,
          4.41896319e-01, 0., 1.30212039e-01, 4.60471600e-01,
          3.83498251e-01, 0., 0., 4.60471600e-01, 4.60471600e-01,
          5.72904348e-01, 0., 1.23187061e-02, 8.64194483e-02,
          4.47318852e-02, 0., 0., 5.72904348e-01, 5.72904348e-01,
          5.75688422e-01, 0., 0., 0., 0., 0., 0., 5.75688422e-01,
          5.75688422e-01, 5.65787613e-01, 2.56535828e-01, 0., 0., 0., 0.,
          0., 5.36943555e-01, 5.65787613e-01, 5.75688422e-01,
          5.75688422e-01, 0., 0., 0., 0., 0., 0., 5.75688422e-01,
          5.75538576e-01, 5.75538576e-01, 0., 0., 2.27778405e-02, 0., 0.,
          0., 5.75538576e-01, 4.93935347e-01, 4.93935347e-01, 0., 0.,
          2.11011633e-01, 4.93935347e-01, 7.44464919e-02, 0.,
          4.61608231e-01, 5.34680963e-01, 5.34680963e-01, 9.52304602e-02,
          0., 1.18986301e-01, 5.34680963e-01, 3.22356999e-01,
          8.59147753e-04, 9.93373692e-02, 4.72217798e-01, 4.72217798e-01,
          3.73506844e-01, 0., 0., 4.72217798e-01, 4.25143361e-01,
          7.07354173e-02, 3.25078070e-02, 1.07236736e-01, 2.06574783e-01,
          8.40859935e-02, 0., 0., 6.51938856e-01, 6.51938856e-01,
          2.86704391e-01, 0., 0., 0., 0., 0., 0., 6.60519242e-01,
          6.60519242e-01, 3.47612530e-01, 0., 0., 0., 0., 0., 0., 0., 0.,
          0., 0., 0., 0., 0., 0., 0., 0., 0., 0., 0., 0., 0., 0., 0., 0.,
          0., 0., 0., 0., 0., 0., 0., 0., 0., 0., 0., 0., 0., 0., 0., 0.,
          0., 0., 0., 0., 0., 0., 0., 2.50169665e-01, 6.82131052e-01,
          6.82131052e-01, 0., 0., 0., 0., 0., 0., 2.09902525e-01,
          5.44748247e-01, 5.44748247e-01, 5.44748247e-01, 0., 0.,
          2.10420638e-01, 1.26381114e-01, 2.28046298e-01, 4.26498279e-02,
          3.06384861e-01, 4.60354716e-01, 4.60354716e-01, 0., 0.,
          4.60354716e-01, 4.60354716e-01, 4.32240278e-01, 0.,
          1.95924446e-01, 4.38861668e-01, 4.38861668e-01, 0., 0.,
          4.38861668e-01, 4.38861668e-01, 4.40531701e-01, 0.,
          1.58930048e-01, 4.40531701e-01, 4.40531701e-01, 0., 0.,
          4.40531701e-01, 4.40531701e-01, 4.45057213e-01, 0.,
          7.19355494e-02, 4.45057213e-01, 4.45057213e-01, 0., 0.,
          4.45057213e-01, 4.45057213e-01, 5.44904053e-01, 1.38638481e-01,
          2.72691157e-03, 1.91301089e-02, 5.44904053e-01, 0., 0.,
          2.90177912e-01, 5.44904053e-01, 4.73102152e-01, 4.73102152e-01,
          0., 0., 4.73102152e-01, 3.13019514e-01, 4.46194336e-02, 0.,
          4.73102152e-01, 4.43430424e-01, 4.43430424e-01, 0., 0.,
          4.43430424e-01, 4.43430424e-01, 1.11435220e-01, 0.,
          4.43430424e-01, 4.37260628e-01, 4.37260628e-01, 0., 0.,
          4.37260628e-01, 4.37260628e-01, 1.99117750e-01, 0.,
          4.37260628e-01, 4.71484810e-01, 4.71484810e-01, 1.21465996e-02,
          0., 4.71484810e-01, 4.71484810e-01, 1.99864060e-01, 0.,
          2.56916106e-01, 2.43063852e-01, 3.19800049e-01, 6.80062696e-02,
          0., 2.81200320e-01, 6.74705565e-01, 5.36889195e-01,
          2.37217322e-02, 6.46035820e-02, 0., 0., 0., 0., 0.,
          6.92040324e-01, 6.92040324e-01, 1.87755391e-01, 0., 0., 0., 0.,
          0., 0., 0., 0., 0., 0., 0., 0., 0., 0., 0., 0., 0., 0., 0., 0.,
          0., 0., 0., 0., 0., 0., 0., 0., 0., 0., 0., 0., 0., 0., 0., 0.,
          0., 0., 0., 0., 0., 0., 0., 0., 0., 0., 0., 0., 0., 0., 0., 0.,
          0., 0., 0., 0., 0., 0., 0., 0., 0., 0., 0., 0., 0.,
          1.81768820e-01, 5.66070497e-01, 5.66070497e-01, 5.66070497e-01,
          0., 0., 0., 0., 3.66951860e-02, 9.61055700e-03, 4.10179108e-01,
          6.36069715e-01, 6.36069715e-01, 0., 0., 8.45260620e-02,
          8.74625519e-02, 3.19914520e-01, 0., 2.44222462e-01,
          4.72771496e-01, 4.72771496e-01, 0., 0., 4.03421998e-01,
          4.72771496e-01, 4.44300562e-01, 0., 9.24500600e-02,
          4.44300562e-01, 4.44300562e-01, 0., 0., 4.44300562e-01,
          4.44300562e-01, 4.56611067e-01, 0., 5.67053221e-02,
          3.97805065e-01, 4.56611067e-01, 0., 0., 4.56611067e-01,
          4.56611067e-01, 5.72796285e-01, 4.47189026e-02, 6.80083781e-03,
          4.77099419e-02, 5.72796285e-01, 1.00842975e-02, 1.43746834e-03,
          7.46165812e-02, 5.72796285e-01, 4.74966913e-01, 4.74966913e-01,
          0., 0., 4.74966913e-01, 3.01715016e-01, 4.30080257e-02, 0.,
          4.74966913e-01, 4.44059581e-01, 4.44059581e-01, 0., 0.,
          4.44059581e-01, 4.44059581e-01, 9.80810821e-02, 0.,
          4.44059581e-01, 4.64238703e-01, 4.11393762e-01, 0., 0.,
          4.64238703e-01, 4.64238703e-01, 2.33681127e-01, 0.,
          3.53494912e-01, 1.42151177e-01, 1.26758158e-01, 0., 0.,
          6.36453271e-01, 6.36453271e-01, 3.77977490e-01, 0.,
          6.60188496e-02, 0., 0., 0., 0., 6.44468367e-01, 6.44468367e-01,
          4.03592259e-01, 0., 0., 0., 0., 0., 0., 0., 9.81029928e-01,
          1.39841110e-01, 0., 0., 0., 0., 0., 0., 0., 0., 0., 0., 0., 0.,
          0., 0., 0., 0., 0., 0., 0., 0., 0., 0., 0., 0., 0., 0., 0., 0.,
          0., 0., 0., 0., 0., 0., 0., 0., 0., 0., 0., 0., 0., 0., 0., 0.,
          0., 0., 0., 0., 0., 0., 0., 0., 0., 0., 0., 0., 0., 0., 0., 0.,
          0., 0., 0., 0., 0., 0., 0., 0., 0., 0., 0., 0., 0., 0., 0., 0.,
          1.56177670e-01, 6.95938706e-01, 6.95938706e-01, 0., 0., 0., 0.,
          0., 0., 3.10089648e-01, 6.69760406e-01, 6.69760406e-01, 0., 0.,
          0., 0., 5.59153967e-02, 0., 1.80572167e-01, 6.90740645e-01,
          6.90740645e-01, 0., 0., 0., 5.59153967e-02, 1.47422776e-01, 0.,
          1.41516179e-01, 6.75991058e-01, 6.75991058e-01, 0., 0.,
          6.08956851e-02, 1.83997467e-01, 3.05398375e-01, 5.08052576e-03,
          4.26618084e-02, 2.99285501e-01, 8.39743733e-01, 8.38546678e-02,
          1.19530801e-02, 8.47721007e-03, 3.07438433e-01, 1.89227372e-01,
          6.04330860e-02, 0., 0., 6.73705995e-01, 6.73705995e-01,
          1.50558680e-01, 0., 1.52930602e-01, 5.89101948e-02,
          3.65676847e-03, 0., 0., 6.87572420e-01, 6.87572420e-01,
          2.02297211e-01, 0., 5.67138903e-02, 0., 0., 0., 0.,
          6.69002295e-01, 6.69002295e-01, 3.13357711e-01, 0., 0., 0., 0.,
          0., 0., 6.90267742e-01, 6.90267742e-01, 2.00424999e-01, 0., 0.,
          0., 0., 0., 0., 0., 0., 0., 0., 0., 0., 0., 0., 0., 0., 0., 0.,
          0., 0., 0., 0., 0., 0., 0., 0., 0., 0., 0., 0., 0., 0., 0., 0.,
          0., 0., 0., 0., 0., 0., 0., 0., 0., 0., 0., 0., 0., 0., 0., 0.,
          0., 0., 0., 0., 0., 0., 0., 0., 0., 0., 0., 0., 0., 0., 0., 0.,
          0., 0., 0., 0., 0., 0., 0., 0., 0., 0., 0., 0., 0., 0., 0., 0.,
          0., 0., 0., 0., 0., 0., 0., 0., 0., 0., 0., 0., 0., 0., 0., 0.,
          0., 0., 0., 0., 0., 0., 0., 0., 0., 0., 0., 0., 0., 0., 0., 0.,
          0., 0., 0., 0., 0., 0., 0., 0., 0., 9.95024860e-01, 0., 0., 0.,
          0., 0., 0., 0., 0., 9.95024860e-01, 0., 0., 0., 0., 0., 0., 0.,
          0., 9.95024860e-01, 0., 0., 0., 0., 0., 0., 0., 0., 0., 0., 0.,
          0., 0., 0., 0., 0., 0., 0., 0., 0., 0., 0., 0., 0., 0., 0., 0.,
          0., 0., 0., 0., 0., 0., 0., 0., 0., 0., 0., 0., 0., 0., 0., 0.,
          0., 0., 0., 0., 0., 0., 0., 0., 0., 0., 0., 0., 0., 0., 0., 0.,
          0., 0., 0., 0., 0., 0., 0., 0., 0., 0., 0., 0., 0., 0., 0., 0.,
          0., 0., 0., 0., 0., 0., 0., 0., 0., 0., 0., 0., 0., 0., 0., 0.,
          0., 0., 0., 0., 0., 0., 0., 0., 0., 0., 0., 0., 0., 0., 0., 0.,
          0., 0., 0., 0., 0., 0., 0., 0., 0., 0., 0., 0., 0., 0., 0., 0.,
          0., 0., 0., 0., 0., 0., 0., 0., 0., 0., 0., 0., 0., 0., 0., 0.,
          0., 0., 0., 0., 0., 0., 0., 0., 0., 0., 0., 0., 0., 0., 0., 0.,
          0., 0., 0., 0., 0., 0., 0., 0., 0., 0., 0., 0., 0., 0., 0., 0.,
          0., 0., 0., 0., 0., 0., 0., 0., 0., 0., 0., 0., 0., 0., 0., 0.,
          0., 0., 0., 0., 0., 0., 0., 0., 0., 0., 0., 0., 0., 0., 0., 0.,
          0., 0., 0., 0., 0., 0., 0., 0., 0., 0., 0., 0., 0., 0., 0., 0.,
          0., 0., 0., 0., 0., 0., 0., 0., 0., 0., 0., 0., 0., 0., 0., 0.,
          0., 0., 0. ]
      - [ 0., 0., 0., 0., 0., 0., 0., 0., 0., 0., 0., 0., 0., 0., 0., 0.,
          0., 0., 0., 0., 0., 0., 0., 0., 0., 0., 0., 0., 0., 0., 0., 0.,
          0., 0., 0., 0., 0., 0., 0., 0., 0., 0., 0., 0., 0., 0., 0., 0.,
          0., 0., 0., 0., 0., 0., 0., 0., 0., 0., 0., 0., 0., 0., 0., 0.,
          0., 0., 0., 0., 0., 0., 0., 0., 0., 0., 0., 0., 0., 0., 0., 0.,
          0., 1.31199688e-01, 6.97637022e-01, 6.97637022e-01, 0., 0., 0.,
          0., 0., 4.92717400e-02, 1.34097099e-01, 1.61253408e-01,
          4.27289128e-01, 0., 0., 4.38607424e-01, 5.24633944e-01,
          5.24633944e-01, 1.59191728e-01, 1.39617110e-02, 0., 0., 0., 0.,
          4.33515489e-01, 6.33659542e-01, 6.33659542e-01, 4.99394760e-02,
          0., 0., 0., 0., 0., 0., 0., 0., 0., 0., 0., 0., 0., 0., 0., 0.,
          0., 0., 0., 0., 0., 0., 0., 0., 0., 0., 0., 0., 0., 0., 0., 0.,
          0., 0., 0., 0., 0., 0., 0., 0., 0., 0., 0., 0., 0., 0., 0., 0.,
          0., 0., 0., 0., 0., 0., 0., 0., 0., 0., 0., 0., 0., 0., 0., 0.,
          0., 0., 0., 0., 0., 0., 0., 0., 0., 0., 0., 0., 0., 0., 0., 0.,
          0., 0., 0., 0., 0., 0., 0., 0., 0., 0., 0., 0., 0., 0., 0., 0.,
          0., 0., 0., 0., 0., 0., 0., 0., 0., 0., 0., 0., 0., 0., 0., 0.,
          0., 0., 0., 0., 0., 0., 0., 0., 0., 0., 0., 0., 0., 0., 0., 0.,
          0., 0., 0., 0., 0., 0., 0., 0., 7.04615593e-01, 7.04615593e-01,
          0., 0., 0., 0., 0., 0., 2.21638054e-01, 6.04519665e-01,
          6.04519665e-01, 4.62549984e-01, 0., 0., 0., 0., 0.,
          1.64955277e-02, 1.40022039e-01, 3.42579573e-01, 3.44255306e-02,
          0., 3.71093184e-01, 5.99117517e-01, 5.99117517e-01, 0., 0., 0.,
          0., 0., 0., 4.46723074e-01, 6.30137682e-01, 6.30137682e-01, 0.,
          0., 0., 0., 0., 0., 0., 0., 0., 0., 0., 0., 0., 0., 0., 0., 0.,
          0., 0., 0., 0., 0., 0., 0., 0., 0., 0., 0., 0., 0., 0., 0., 0.,
          0., 0., 0., 0., 0., 0., 0., 0., 0., 0., 0., 0., 0., 0., 0., 0.,
          0., 0., 0., 0., 0., 0., 0., 0., 0., 0., 0., 0., 0., 0., 0., 0.,
          0., 0., 0., 0., 0., 0., 0., 0., 0., 0., 0., 0., 0., 0., 0., 0.,
          0., 0., 0., 0., 0., 0., 0., 0., 0., 0., 0., 0., 0., 0., 0., 0.,
          0., 0., 0., 0., 0., 0., 0., 0., 0., 0., 0., 0., 0., 0., 0., 0.,
          0., 0., 0., 0., 0., 0., 0., 0., 0., 0., 0., 0., 0., 0.,
          7.04615593e-01, 0., 0., 0., 0., 0., 0., 0., 7.04615593e-01,
          6.44004047e-01, 4.01756525e-01, 5.17659560e-02, 0., 0., 0., 0.,
          0., 6.44004047e-01, 2.78347403e-01, 6.57990217e-01,
          6.57990217e-01, 1.09632798e-01, 0., 0., 1.34859040e-01,
          4.49530184e-02, 1.33507758e-01, 2.33548097e-02, 1.33310780e-01,
          3.73995662e-01, 7.19174789e-03, 0., 4.97110575e-01,
          4.97110575e-01, 4.97110575e-01, 3.08928341e-01, 4.46215838e-01,
          0., 0., 0., 0., 4.46215838e-01, 4.46215838e-01, 4.46215838e-01,
          4.46215838e-01, 7.04615593e-01, 0., 0., 0., 0., 0., 0., 0.,
          7.04615593e-01, 0., 0., 0., 0., 0., 0., 0., 0., 0., 0., 0., 0.,
          0., 0., 0., 0., 0., 0., 0., 0., 0., 0., 0., 0., 0., 0., 0., 0.,
          0., 0., 0., 0., 0., 0., 0., 0., 0., 0., 0., 0., 0., 0., 0., 0.,
          0., 0., 0., 0., 0., 0., 0., 0., 0., 0., 0., 0., 0., 0., 0., 0.,
          0., 0., 0., 0., 0., 0., 0., 0., 0., 0., 0., 0., 0., 0., 0., 0.,
          0., 0., 0., 0., 0., 0., 0., 0., 0., 0., 0., 0., 0., 0., 0., 0.,
          0., 0., 0., 0., 0., 0., 0., 5.78795493e-01, 5.78795493e-01, 0.,
          0., 0., 0., 0., 0., 5.69396138e-01, 5.75688422e-01,
          5.75688422e-01, 0., 0., 0., 0., 0., 0., 5.75688422e-01,
          5.57091653e-01, 5.57091653e-01, 0., 0., 2.35607728e-01,
          8.78390148e-02, 1.25210294e-02, 0., 5.57091653e-01,
          4.81606454e-01, 4.74184901e-01, 0., 0., 4.81606454e-01,
          2.70223141e-01, 3.85190137e-02, 0., 4.81606454e-01,
          4.44168895e-01, 4.44168895e-01, 4.44168895e-01, 0.,
          4.44168895e-01, 8.58826265e-02, 4.08241749e-02, 9.52733960e-03,
          4.44168895e-01, 3.53437543e-01, 5.12975492e-02, 1.00127138e-01,
          2.84332633e-02, 5.12116253e-01, 4.15563211e-02, 2.60741085e-01,
          5.12116253e-01, 5.12116253e-01, 4.71203387e-01, 0.,
          4.61914204e-02, 3.24046791e-01, 4.71203387e-01, 2.52978574e-03,
          4.08234959e-03, 4.71203387e-01, 4.71203387e-01, 5.61664820e-01,
          0., 1.64456274e-02, 1.15371063e-01, 1.85494512e-01, 0., 0.,
          5.61664820e-01, 5.61664820e-01, 5.75688422e-01, 0., 0., 0., 0.,
          0., 0., 5.75688422e-01, 5.75688422e-01, 5.32130837e-01, 0., 0.,
          0., 0., 0., 0., 5.96189499e-01, 5.96189499e-01, 0., 0., 0., 0.,
          0., 0., 0., 0., 0., 0., 0., 0., 0., 0., 0., 0., 0., 0., 0., 0.,
          0., 0., 0., 0., 0., 0., 0., 0., 0., 0., 0., 0., 0., 0., 0., 0.,
          0., 0., 0., 0., 0., 0., 0., 0., 0., 0., 0., 0., 0., 0., 0., 0.,
          0., 0., 0., 0., 0., 0., 0., 0., 0., 0., 0., 0., 0., 0., 0., 0.,
          0., 0., 0., 0., 5.85647464e-01, 5.85647464e-01, 0., 0., 0., 0.,
          0., 0., 5.55145204e-01, 6.58863127e-01, 6.58863127e-01, 0., 0.,
          7.84846544e-02, 1.41642079e-01, 2.01903973e-02, 0.,
          3.13992023e-01, 4.46439266e-01, 4.46439266e-01, 0., 0.,
          4.46439266e-01, 4.46439266e-01, 1.65633678e-01, 0.,
          4.13369119e-01, 4.39894527e-01, 4.39894527e-01, 0., 0.,
          4.39894527e-01, 4.39894527e-01, 1.84423134e-01, 0.,
          4.33088064e-01, 4.44230795e-01, 4.44230795e-01, 0., 0.,
          4.44230795e-01, 4.44230795e-01, 9.41149816e-02, 0.,
          4.44230795e-01, 5.51993489e-01, 2.41147637e-01, 0., 0.,
          5.51993489e-01, 1.47655264e-01, 2.10475512e-02, 0.,
          5.51993489e-01, 5.62032044e-01, 0., 5.91766927e-03,
          4.15142439e-02, 5.62032044e-01, 0., 0., 2.12106034e-01,
          5.62032044e-01, 4.43214953e-01, 0., 1.15652062e-01,
          4.43214953e-01, 4.43214953e-01, 0., 0., 4.43214953e-01,
          4.43214953e-01, 3.64179641e-01, 0., 2.23010913e-01,
          4.50870186e-01, 4.50870186e-01, 0., 0., 4.50870186e-01,
          4.50870186e-01, 4.24270958e-01, 0., 1.38290733e-01,
          4.46209818e-01, 4.46209818e-01, 0., 0., 4.46209818e-01,
          4.46209818e-01, 6.64328635e-02, 0., 2.17679776e-02,
          1.52708977e-01, 3.04602087e-02, 0., 0., 6.94238663e-01,
          6.94238663e-01, 0., 0., 0., 0., 0., 0., 0., 7.04615593e-01,
          7.04615593e-01, 0., 0., 0., 0., 0., 0., 0., 0., 0., 0., 0., 0.,
          0., 0., 0., 0., 0., 0., 0., 0., 0., 0., 0., 0., 0., 0., 0., 0.,
          0., 0., 0., 0., 0., 0., 0., 0., 0., 0., 0., 0., 0., 0., 0., 0.,
          0., 0., 0., 0., 0., 0., 0., 0., 0., 0., 5.43672562e-01,
          5.43672562e-01, 5.43672562e-01, 0., 0., 0., 0., 0.,
          3.28376412e-01, 5.03893256e-01, 5.03893256e-01, 5.03893256e-01,
          0., 0., 2.13677883e-01, 3.04587558e-02, 0., 4.32037413e-01,
          5.31931221e-01, 5.31931221e-01, 5.63495494e-02, 0.,
          1.16450958e-01, 5.31931221e-01, 3.17581475e-01, 0.,
          1.68051317e-01, 4.58660930e-01, 4.58660930e-01, 0., 0.,
          4.58660930e-01, 4.58660930e-01, 2.10581481e-01, 0.,
          3.31050873e-01, 4.41483557e-01, 4.41483557e-01, 0., 0.,
          4.41483557e-01, 4.41483557e-01, 1.45090654e-01, 0.,
          4.41483557e-01, 4.91248429e-01, 2.76943266e-01, 0., 0.,
          4.91248429e-01, 4.91248429e-01, 1.66169807e-01, 0.,
          4.08422142e-01, 3.47112149e-01, 7.60414004e-02, 0., 0.,
          8.22122574e-01, 3.11138570e-01, 4.43513133e-02, 0.,
          3.01440835e-01, 3.00092131e-01, 0., 3.86478528e-02,
          2.71126390e-01, 8.40205193e-01, 0., 0., 6.75454810e-02,
          3.40660781e-01, 3.83622497e-01, 0., 2.02003449e-01,
          4.85533953e-01, 4.85533953e-01, 0., 0., 3.16147387e-01,
          4.85533953e-01, 4.41980571e-01, 0., 1.37298912e-01,
          4.41980571e-01, 4.41980571e-01, 0., 0., 4.41980571e-01,
          4.41980571e-01, 2.14038149e-01, 0., 2.57778794e-01,
          4.89175767e-01, 4.05983716e-01, 0., 1.22728888e-02,
          4.89175767e-01, 4.89175767e-01, 2.22823061e-02, 7.60699157e-03,
          3.06816459e-01, 5.47441006e-01, 9.92802996e-03, 0.,
          2.58637723e-02, 5.47441006e-01, 5.47441006e-01, 0.,
          1.05964476e-02, 5.17367087e-02, 1.39936879e-01, 0., 0.,
          2.24090278e-01, 6.78468585e-01, 6.78468585e-01, 0., 0., 0., 0.,
          0., 0., 5.75688422e-01, 5.75688422e-01, 5.75688422e-01, 0., 0.,
          0., 0., 0., 0., 0., 0., 0., 0., 0., 0., 0., 0., 0., 0., 0., 0.,
          0., 0., 0., 0., 0., 0., 0., 0., 0., 0., 0., 0., 0., 0., 0., 0.,
          0., 0., 0., 3.62094879e-01, 9.27166164e-01, 0., 0., 0., 0., 0.,
          0., 5.74149072e-01, 5.74149072e-01, 5.74149072e-01, 0., 0.,
          6.28911257e-02, 3.46552394e-02, 8.56347010e-03, 9.78306308e-03,
          4.44227785e-01, 4.44227785e-01, 4.34018284e-01, 0., 0.,
          4.44227785e-01, 4.44227785e-01, 1.04415558e-01, 8.32763538e-02,
          5.49286664e-01, 5.49286664e-01, 6.03919886e-02, 0., 0.,
          5.49286664e-01, 2.92367816e-01, 1.27255106e-02, 8.89479090e-03,
          4.88785595e-01, 4.88785595e-01, 0., 0., 4.13931340e-01,
          4.88785595e-01, 3.15459460e-01, 0., 8.67775306e-02,
          6.52566627e-02, 6.05553798e-02, 0., 0., 6.45035863e-01,
          6.45035863e-01, 3.90714526e-01, 0., 2.88864393e-02, 0., 0., 0.,
          0., 6.85207307e-01, 6.85207307e-01, 2.32683554e-01, 0., 0., 0.,
          0., 0., 0., 8.55955780e-01, 5.03631413e-01, 7.17902407e-02, 0.,
          0., 0., 0., 6.55855164e-02, 4.60102320e-01, 8.80465209e-01, 0.,
          0., 0., 0., 0., 0., 2.71726727e-01, 6.78010345e-01,
          6.78010345e-01, 0., 0., 0., 0., 1.72253102e-02, 0.,
          4.26438034e-01, 6.29908323e-01, 6.29908323e-01, 0., 0.,
          1.06698222e-01, 8.13095346e-02, 1.66404217e-01, 0.,
          3.10974568e-01, 5.22865832e-01, 1.02040814e-02, 0.,
          2.23858118e-01, 5.22865832e-01, 5.22865832e-01, 1.77535247e-02,
          1.11547895e-01, 4.71575946e-01, 4.71575946e-01, 0., 0.,
          3.04952979e-01, 4.71575946e-01, 4.71575946e-01, 0.,
          1.19910091e-01, 4.42989081e-01, 4.42989081e-01, 0., 0.,
          4.42989081e-01, 4.42989081e-01, 4.42989081e-01, 0.,
          3.97244142e-03, 1.19173257e-02, 0., 0., 0., 5.75642884e-01,
          5.75642884e-01, 5.75642884e-01, 0., 0., 0., 0., 0., 0., 0., 0.,
          0., 0., 0., 0., 0., 0., 0., 0., 0., 0., 0., 0., 0., 0., 0., 0.,
          0., 0., 0., 0., 0., 0., 0., 0., 0., 0., 0., 0., 5.75688422e-01,
          5.75688422e-01, 5.75688422e-01, 0., 0., 0., 0., 0., 0.,
          4.41878885e-01, 4.41878885e-01, 4.41878885e-01, 0., 0.,
          4.41878885e-01, 4.41878885e-01, 1.38929725e-01, 0.,
          4.34863001e-01, 4.34863001e-01, 4.34863001e-01, 0., 0.,
          4.34863001e-01, 4.34863001e-01, 2.23890781e-01, 0.,
          4.30098236e-01, 4.70318079e-01, 3.18792731e-01, 0., 0.,
          4.70318079e-01, 4.70318079e-01, 2.12348267e-01, 0.,
          2.01098211e-02, 3.34822834e-02, 0., 0., 4.73481491e-02,
          7.09824979e-01, 6.93212688e-01, 6.89317435e-02, 0., 0., 0., 0.,
          0., 6.91967309e-01, 6.91967309e-01, 1.88294217e-01, 0., 0., 0.,
          0., 0., 0., 0., 0., 0., 0., 0., 0., 0., 0., 0., 0., 0., 0., 0.,
          0., 0., 0., 0., 0., 0., 0., 0., 0., 0., 0., 0., 0., 0., 0., 0.,
          0., 0., 0., 0., 0., 4.98439610e-01, 8.61949563e-01, 0., 0., 0.,
          0., 0., 0., 1.58747464e-01, 6.91000640e-01, 6.91000640e-01, 0.,
          0., 1.91517211e-02, 9.77669656e-02, 5.48857525e-02, 0.,
          2.01179266e-01, 4.37072277e-01, 4.37072277e-01, 0., 0.,
          4.37072277e-01, 4.37072277e-01, 4.37072277e-01, 0.,
          3.34040344e-01, 4.37030375e-01, 4.37030375e-01, 0., 0.,
          4.37030375e-01, 4.37030375e-01, 3.46510381e-01, 0.,
          5.75713702e-02, 1.93146661e-01, 1.43340424e-01, 0., 0.,
          5.57752550e-01, 5.57752550e-01, 5.57752550e-01, 0., 0., 0., 0.,
          0., 0., 6.98209703e-01, 6.98209703e-01, 1.34300247e-01, 0., 0.,
          0., 0., 0., 0., 0., 0., 0., 0., 0., 0., 0., 0., 0., 0., 0., 0.,
          0., 0., 0., 0., 0., 0., 0., 0., 0., 5.34739554e-01,
          5.95026195e-01, 5.95026195e-01, 0., 0., 0., 0., 0., 0.,
          2.98424959e-01, 4.37884539e-01, 4.37884539e-01, 0., 0.,
          4.37884539e-01, 4.37884539e-01, 3.73626828e-01, 0.,
          4.31536019e-01, 4.31536019e-01, 4.31536019e-01, 0., 0.,
          4.31536019e-01, 4.31536019e-01, 2.54111439e-01, 0.,
          6.06599189e-02, 1.31943122e-01, 9.28382427e-02, 0., 0.,
          5.94166934e-01, 5.94166934e-01, 5.08223295e-01, 0., 0., 0., 0.,
          0., 0., 6.37260973e-01, 6.37260973e-01, 4.25951272e-01, 0., 0.,
          0., 0., 0., 0., 0., 0., 0., 0., 0., 0., 0., 0., 0., 0., 0., 0.,
          0., 0., 0., 0., 0., 0., 0., 0., 0., 0., 0., 0., 0., 0., 0., 0.,
          0., 0., 0., 0., 0., 0., 0., 0., 0., 0., 0., 0., 0., 0., 0., 0.,
          0., 0., 0., 0., 0., 0., 5.75688422e-01, 5.75688422e-01,
          5.75688422e-01, 0., 0., 0., 0., 0., 0., 4.21381593e-01,
          4.43051100e-01, 4.43051100e-01, 0., 0., 4.43051100e-01,
          4.43051100e-01, 1.81204095e-01, 0., 3.90832841e-01,
          4.32051152e-01, 4.32051152e-01, 0., 0., 4.32051152e-01,
          4.32051152e-01, 3.10259491e-01, 0., 1.79394782e-01,
